digraph Tree {
node [shape=box, style="filled, rounded", color="black", fontname=helvetica] ;
edge [fontname=helvetica] ;
0 [label="Glass <= 0.59\ngini = 0.86\nsamples = 2097\nvalue = [299.57, 299.57, 299.57, 299.57, 299.57, 299.57, 299.57]\nclass = Year 4", fillcolor="#ffffff"] ;
1 [label="Filmed_Plastic_Fragments <= 82.73\ngini = 0.85\nsamples = 1131\nvalue = [119.75, 140.45, 197.57, 205.69, 188.56, 228.62, 269.61]\nclass = Year 7", fillcolor="#fef8fb"] ;
0 -> 1 [labeldistance=2.5, labelangle=45, headlabel="True"] ;
2 [label="Disposable_Cigarette_Lighters <= 0.53\ngini = 0.85\nsamples = 1128\nvalue = [118.92, 140.45, 197.57, 205.69, 188.56, 228.62, 254.64]\nclass = Year 7", fillcolor="#fefafc"] ;
1 -> 2 ;
3 [label="Cloth_Fabric_Other <= 0.22\ngini = 0.85\nsamples = 998\nvalue = [102.76, 119.69, 180.11, 180.38, 171.84, 218.11, 209.7]\nclass = Year 6", fillcolor="#fefdff"] ;
2 -> 3 ;
4 [label="Clothing___Shoes <= 0.22\ngini = 0.85\nsamples = 975\nvalue = [98.61, 119.69, 180.11, 175.1, 164.23, 210.23, 209.7]\nclass = Year 6", fillcolor="#ffffff"] ;
3 -> 4 ;
5 [label="Rubber_Fragments <= 1.03\ngini = 0.85\nsamples = 932\nvalue = [93.64, 116.92, 173.68, 171.94, 139.9, 207.6, 209.7]\nclass = Year 7", fillcolor="#ffffff"] ;
4 -> 5 ;
6 [label="Rubber_Gloves___Flux <= 0.0\ngini = 0.85\nsamples = 914\nvalue = [91.98, 114.85, 171.84, 168.77, 132.3, 204.97, 209.7]\nclass = Year 7", fillcolor="#fffefe"] ;
5 -> 6 ;
7 [label="Cloth_Fabric_Other___Flux <= 1.1\ngini = 0.85\nsamples = 911\nvalue = [91.57, 114.85, 170.92, 168.77, 130.78, 204.97, 209.7]\nclass = Year 7", fillcolor="#fffefe"] ;
6 -> 7 ;
8 [label="Paper_Bags___Flux <= 1.12\ngini = 0.85\nsamples = 883\nvalue = [87.84, 105.16, 169.08, 166.66, 130.78, 202.34, 209.7]\nclass = Year 7", fillcolor="#fffdfe"] ;
7 -> 8 ;
9 [label="Metal <= 100.46\ngini = 0.85\nsamples = 789\nvalue = [80.8, 83.02, 150.7, 150.84, 124.69, 194.46, 164.76]\nclass = Year 6", fillcolor="#fcf8fe"] ;
8 -> 9 ;
10 [label="Buoys___Floats <= 1.7\ngini = 0.85\nsamples = 788\nvalue = [80.8, 83.02, 150.7, 150.84, 124.69, 191.83, 164.76]\nclass = Year 6", fillcolor="#fcf8fe"] ;
9 -> 10 ;
11 [label="Aluminum_Tin_Cans <= 5.27\ngini = 0.85\nsamples = 748\nvalue = [77.9, 78.18, 143.35, 139.24, 120.13, 186.58, 134.81]\nclass = Year 6", fillcolor="#faf3fd"] ;
10 -> 11 ;
12 [label="Food_Wrappers <= 11.5\ngini = 0.85\nsamples = 743\nvalue = [77.48, 78.18, 141.52, 137.13, 120.13, 186.58, 134.81]\nclass = Year 6", fillcolor="#faf3fd"] ;
11 -> 12 ;
13 [label="Buoys___Floats <= 0.26\ngini = 0.85\nsamples = 738\nvalue = [76.24, 78.18, 141.52, 137.13, 120.13, 181.32, 134.81]\nclass = Year 6", fillcolor="#fbf4fe"] ;
12 -> 13 ;
14 [label="Cloth_Fabric_Other___Flux <= 0.76\ngini = 0.85\nsamples = 672\nvalue = [70.02, 72.64, 130.49, 125.52, 106.45, 160.3, 89.87]\nclass = Year 6", fillcolor="#fbf6fe"] ;
13 -> 14 ;
15 [label="Processed_Lumber_Other___Flux <= 4.91\ngini = 0.84\nsamples = 644\nvalue = [62.98, 67.8, 129.57, 122.36, 106.45, 160.3, 89.87]\nclass = Year 6", fillcolor="#fbf5fe"] ;
14 -> 15 ;
16 [label="Gloves__non_rubber____Flux <= 1.08\ngini = 0.84\nsamples = 639\nvalue = [61.74, 67.8, 129.57, 122.36, 106.45, 157.67, 74.89]\nclass = Year 6", fillcolor="#fbf6fe"] ;
15 -> 16 ;
17 [label="Fabric_Pieces___Flux <= 1.54\ngini = 0.84\nsamples = 638\nvalue = [61.74, 67.8, 129.57, 122.36, 106.45, 155.04, 74.89]\nclass = Year 6", fillcolor="#fcf6fe"] ;
16 -> 17 ;
18 [label="Unclassified___Flux <= 31.11\ngini = 0.84\nsamples = 637\nvalue = [61.74, 67.8, 129.57, 122.36, 106.45, 152.41, 74.89]\nclass = Year 6", fillcolor="#fcf7fe"] ;
17 -> 18 ;
19 [label="Processed_Lumber_Other___Flux <= 1.3\ngini = 0.84\nsamples = 488\nvalue = [39.78, 47.74, 105.68, 107.59, 88.2, 113.0, 74.89]\nclass = Year 6", fillcolor="#fefdff"] ;
18 -> 19 ;
20 [label="Cardboard_Cartons___Flux <= 2.23\ngini = 0.84\nsamples = 476\nvalue = [38.95, 47.05, 100.16, 106.54, 88.2, 107.74, 74.89]\nclass = Year 6", fillcolor="#fffeff"] ;
19 -> 20 ;
21 [label="Processed_Lumber_Other___Flux <= 0.44\ngini = 0.84\nsamples = 471\nvalue = [38.53, 47.05, 100.16, 105.48, 88.2, 102.48, 59.91]\nclass = Year 4", fillcolor="#feffff"] ;
20 -> 21 ;
22 [label="Cigar_Tips___Flux <= 0.0\ngini = 0.84\nsamples = 440\nvalue = [35.63, 43.59, 90.97, 99.15, 88.2, 94.6, 59.91]\nclass = Year 4", fillcolor="#fdffff"] ;
21 -> 22 ;
23 [label="Lumber_Building_Material <= 0.93\ngini = 0.84\nsamples = 433\nvalue = [35.63, 40.82, 90.06, 97.04, 88.2, 94.6, 59.91]\nclass = Year 4", fillcolor="#feffff"] ;
22 -> 23 ;
24 [label="Hard_Plastic_Fragments <= 239.77\ngini = 0.84\nsamples = 358\nvalue = [33.56, 34.59, 74.43, 74.89, 62.35, 78.83, 59.91]\nclass = Year 6", fillcolor="#fefdff"] ;
23 -> 24 ;
25 [label="Food_Wrappers <= 4.15\ngini = 0.84\nsamples = 357\nvalue = [33.56, 34.59, 74.43, 74.89, 60.83, 78.83, 59.91]\nclass = Year 6", fillcolor="#fefdff"] ;
24 -> 25 ;
26 [label="Rubber_Fragments <= 0.9\ngini = 0.85\nsamples = 345\nvalue = [32.73, 33.21, 74.43, 71.73, 59.31, 68.32, 59.91]\nclass = Year 3", fillcolor="#fdfffe"] ;
25 -> 26 ;
27 [label="Balloons_Mylar <= 2.01\ngini = 0.85\nsamples = 340\nvalue = [31.9, 33.21, 74.43, 68.56, 59.31, 68.32, 59.91]\nclass = Year 3", fillcolor="#fbfffc"] ;
26 -> 27 ;
28 [label="Foamed_Plastic_Fragments <= 5.9\ngini = 0.85\nsamples = 334\nvalue = [31.9, 30.44, 72.6, 68.56, 59.31, 68.32, 59.91]\nclass = Year 3", fillcolor="#fdfffd"] ;
27 -> 28 ;
29 [label="Personal_Care_Products <= 0.42\ngini = 0.84\nsamples = 300\nvalue = [29.0, 26.98, 68.92, 62.23, 44.1, 63.07, 59.91]\nclass = Year 3", fillcolor="#fbfefb"] ;
28 -> 29 ;
30 [label="Foamed_Plastic_Fragments <= 0.18\ngini = 0.84\nsamples = 273\nvalue = [23.62, 24.91, 65.24, 60.13, 41.06, 57.81, 44.94]\nclass = Year 3", fillcolor="#fbfefb"] ;
29 -> 30 ;
31 [label="Food_Wrappers <= 0.94\ngini = 0.83\nsamples = 149\nvalue = [13.67, 9.69, 36.76, 31.64, 19.77, 42.05, 44.94]\nclass = Year 7", fillcolor="#fffbfd"] ;
30 -> 31 ;
32 [label="Processed_Lumber_Other <= 6.42\ngini = 0.83\nsamples = 118\nvalue = [10.77, 8.3, 28.49, 23.21, 16.73, 36.79, 29.96]\nclass = Year 6", fillcolor="#fbf4fe"] ;
31 -> 32 ;
33 [label="Rubber_Other___Flux <= 0.71\ngini = 0.83\nsamples = 117\nvalue = [10.77, 8.3, 28.49, 23.21, 15.21, 36.79, 29.96]\nclass = Year 6", fillcolor="#fbf4fe"] ;
32 -> 33 ;
34 [label="Filmed_Plastic_Fragments___Flux <= 0.0\ngini = 0.81\nsamples = 100\nvalue = [9.53, 6.92, 25.73, 21.1, 7.6, 34.16, 14.98]\nclass = Year 6", fillcolor="#f8edfd"] ;
33 -> 34 ;
35 [label="Metal_Other <= 0.19\ngini = 0.81\nsamples = 99\nvalue = [9.53, 6.92, 25.73, 20.04, 7.6, 34.16, 14.98]\nclass = Year 6", fillcolor="#f8edfd"] ;
34 -> 35 ;
36 [label="Metal <= 0.47\ngini = 0.81\nsamples = 95\nvalue = [9.12, 6.92, 22.97, 20.04, 7.6, 34.16, 14.98]\nclass = Year 6", fillcolor="#f6e7fc"] ;
35 -> 36 ;
37 [label="Plastic_Utensils <= 0.91\ngini = 0.79\nsamples = 82\nvalue = [9.12, 5.53, 18.38, 17.93, 7.6, 26.28, 0.0]\nclass = Year 6", fillcolor="#f6e7fc"] ;
36 -> 37 ;
38 [label="Fishing_Lures___Line <= 0.97\ngini = 0.8\nsamples = 79\nvalue = [8.7, 5.53, 18.38, 17.93, 7.6, 21.02, 0.0]\nclass = Year 6", fillcolor="#fcf6fe"] ;
37 -> 38 ;
39 [label="Plastic_Rope_Net <= 6.75\ngini = 0.8\nsamples = 76\nvalue = [8.7, 5.53, 18.38, 16.88, 6.08, 18.39, 0.0]\nclass = Year 6", fillcolor="#ffffff"] ;
38 -> 39 ;
40 [label="Balloons_Latex___Flux <= 0.39\ngini = 0.8\nsamples = 75\nvalue = [8.7, 5.53, 17.46, 16.88, 6.08, 18.39, 0.0]\nclass = Year 6", fillcolor="#fefcff"] ;
39 -> 40 ;
41 [label="Plastic <= 3.37\ngini = 0.8\nsamples = 74\nvalue = [8.7, 5.53, 17.46, 16.88, 6.08, 15.77, 0.0]\nclass = Year 3", fillcolor="#fdfffd"] ;
40 -> 41 ;
42 [label="Bags___Flux <= 0.0\ngini = 0.82\nsamples = 43\nvalue = [5.39, 3.46, 10.11, 7.38, 6.08, 7.88, 0.0]\nclass = Year 3", fillcolor="#f1fdf3"] ;
41 -> 42 ;
43 [label="Plastic_Rope_Net <= 0.2\ngini = 0.82\nsamples = 42\nvalue = [4.97, 3.46, 10.11, 7.38, 6.08, 7.88, 0.0]\nclass = Year 3", fillcolor="#f1fdf3"] ;
42 -> 43 ;
44 [label="Unclassified___Flux <= 1.25\ngini = 0.82\nsamples = 40\nvalue = [4.97, 2.77, 9.19, 7.38, 6.08, 7.88, 0.0]\nclass = Year 3", fillcolor="#f6fef7"] ;
43 -> 44 ;
45 [label="Plastic_Beverage_Bottles___Flux <= 0.0\ngini = 0.82\nsamples = 36\nvalue = [4.97, 2.77, 8.27, 6.33, 4.56, 5.26, 0.0]\nclass = Year 3", fillcolor="#f0fdf2"] ;
44 -> 45 ;
46 [label="Unclassified___Flux <= 0.78\ngini = 0.82\nsamples = 35\nvalue = [4.97, 2.77, 8.27, 5.27, 4.56, 5.26, 0.0]\nclass = Year 3", fillcolor="#e8fcea"] ;
45 -> 46 ;
47 [label="Plastic <= 0.77\ngini = 0.77\nsamples = 32\nvalue = [4.97, 2.08, 8.27, 5.27, 4.56, 0.0, 0.0]\nclass = Year 3", fillcolor="#e1fbe4"] ;
46 -> 47 ;
48 [label="Rubber_Other <= 0.67\ngini = 0.76\nsamples = 29\nvalue = [4.14, 2.08, 8.27, 4.22, 4.56, 0.0, 0.0]\nclass = Year 3", fillcolor="#d8fadc"] ;
47 -> 48 ;
49 [label="gini = 0.76\nsamples = 27\nvalue = [3.31, 2.08, 8.27, 4.22, 4.56, 0.0, 0.0]\nclass = Year 3", fillcolor="#d6fada"] ;
48 -> 49 ;
50 [label="gini = -0.0\nsamples = 2\nvalue = [0.83, 0.0, 0.0, 0.0, 0.0, 0.0, 0.0]\nclass = Year 1", fillcolor="#e58139"] ;
48 -> 50 ;
51 [label="Plastic <= 1.78\ngini = 0.49\nsamples = 3\nvalue = [0.83, 0.0, 0.0, 1.05, 0.0, 0.0, 0.0]\nclass = Year 4", fillcolor="#d5f9f9"] ;
47 -> 51 ;
52 [label="Plastic___Flux <= 0.0\ngini = 0.0\nsamples = 2\nvalue = [0.83, 0.0, 0.0, 0.0, 0.0, 0.0, 0.0]\nclass = Year 1", fillcolor="#e58139"] ;
51 -> 52 ;
53 [label="gini = 0.0\nsamples = 1\nvalue = [0.41, 0.0, 0.0, 0.0, 0.0, 0.0, 0.0]\nclass = Year 1", fillcolor="#e58139"] ;
52 -> 53 ;
54 [label="gini = 0.0\nsamples = 1\nvalue = [0.41, 0.0, 0.0, 0.0, 0.0, 0.0, 0.0]\nclass = Year 1", fillcolor="#e58139"] ;
52 -> 54 ;
55 [label="gini = 0.0\nsamples = 1\nvalue = [0.0, 0.0, 0.0, 1.05, 0.0, 0.0, 0.0]\nclass = Year 4", fillcolor="#39e5e2"] ;
51 -> 55 ;
56 [label="Bottle_Container_Caps___Flux <= 0.0\ngini = 0.21\nsamples = 3\nvalue = [0.0, 0.69, 0.0, 0.0, 0.0, 5.26, 0.0]\nclass = Year 6", fillcolor="#bb53e8"] ;
46 -> 56 ;
57 [label="gini = 0.0\nsamples = 2\nvalue = [0.0, 0.0, 0.0, 0.0, 0.0, 5.26, 0.0]\nclass = Year 6", fillcolor="#b139e5"] ;
56 -> 57 ;
58 [label="gini = -0.0\nsamples = 1\nvalue = [0.0, 0.69, 0.0, 0.0, 0.0, 0.0, 0.0]\nclass = Year 2", fillcolor="#b7e539"] ;
56 -> 58 ;
59 [label="gini = 0.0\nsamples = 1\nvalue = [0.0, 0.0, 0.0, 1.05, 0.0, 0.0, 0.0]\nclass = Year 4", fillcolor="#39e5e2"] ;
45 -> 59 ;
60 [label="Total_Debris <= 0.0\ngini = 0.7\nsamples = 4\nvalue = [0.0, 0.0, 0.92, 1.05, 1.52, 2.63, 0.0]\nclass = Year 6", fillcolor="#eccff9"] ;
44 -> 60 ;
61 [label="Hard_Plastic_Fragments <= 1.22\ngini = 0.38\nsamples = 2\nvalue = [0.0, 0.0, 0.92, 0.0, 0.0, 2.63, 0.0]\nclass = Year 6", fillcolor="#cc7eee"] ;
60 -> 61 ;
62 [label="gini = 0.0\nsamples = 1\nvalue = [0.0, 0.0, 0.0, 0.0, 0.0, 2.63, 0.0]\nclass = Year 6", fillcolor="#b139e5"] ;
61 -> 62 ;
63 [label="gini = 0.0\nsamples = 1\nvalue = [0.0, 0.0, 0.92, 0.0, 0.0, 0.0, 0.0]\nclass = Year 3", fillcolor="#39e54d"] ;
61 -> 63 ;
64 [label="Hard_Plastic_Fragments___Flux <= 0.0\ngini = 0.48\nsamples = 2\nvalue = [0.0, 0.0, 0.0, 1.05, 1.52, 0.0, 0.0]\nclass = Year 5", fillcolor="#c2cbf7"] ;
60 -> 64 ;
65 [label="gini = 0.0\nsamples = 1\nvalue = [0.0, 0.0, 0.0, 0.0, 1.52, 0.0, 0.0]\nclass = Year 5", fillcolor="#3956e5"] ;
64 -> 65 ;
66 [label="gini = 0.0\nsamples = 1\nvalue = [0.0, 0.0, 0.0, 1.05, 0.0, 0.0, 0.0]\nclass = Year 4", fillcolor="#39e5e2"] ;
64 -> 66 ;
67 [label="Plastic___Flux <= 0.0\ngini = 0.49\nsamples = 2\nvalue = [0.0, 0.69, 0.92, 0.0, 0.0, 0.0, 0.0]\nclass = Year 3", fillcolor="#cef9d3"] ;
43 -> 67 ;
68 [label="gini = 0.0\nsamples = 1\nvalue = [0.0, 0.69, 0.0, 0.0, 0.0, 0.0, 0.0]\nclass = Year 2", fillcolor="#b7e539"] ;
67 -> 68 ;
69 [label="gini = 0.0\nsamples = 1\nvalue = [0.0, 0.0, 0.92, 0.0, 0.0, 0.0, 0.0]\nclass = Year 3", fillcolor="#39e54d"] ;
67 -> 69 ;
70 [label="gini = 0.0\nsamples = 1\nvalue = [0.41, 0.0, 0.0, 0.0, 0.0, 0.0, 0.0]\nclass = Year 1", fillcolor="#e58139"] ;
42 -> 70 ;
71 [label="Flip_Flops <= 0.78\ngini = 0.76\nsamples = 31\nvalue = [3.31, 2.08, 7.35, 9.49, 0.0, 7.88, 0.0]\nclass = Year 4", fillcolor="#f1fdfd"] ;
41 -> 71 ;
72 [label="Cigar_Tips <= 0.17\ngini = 0.74\nsamples = 29\nvalue = [2.9, 1.38, 7.35, 9.49, 0.0, 7.88, 0.0]\nclass = Year 4", fillcolor="#f0fdfd"] ;
71 -> 72 ;
73 [label="Other_Jugs_Containers <= 0.35\ngini = 0.74\nsamples = 28\nvalue = [2.9, 1.38, 6.43, 9.49, 0.0, 7.88, 0.0]\nclass = Year 4", fillcolor="#effdfd"] ;
72 -> 73 ;
74 [label="Bottle_Container_Caps___Flux <= 0.0\ngini = 0.71\nsamples = 23\nvalue = [2.49, 0.69, 3.68, 9.49, 0.0, 7.88, 0.0]\nclass = Year 4", fillcolor="#ebfcfc"] ;
73 -> 74 ;
75 [label="Unclassified___Flux <= 12.53\ngini = 0.68\nsamples = 21\nvalue = [2.49, 0.69, 1.84, 9.49, 0.0, 7.88, 0.0]\nclass = Year 4", fillcolor="#e9fcfc"] ;
74 -> 75 ;
76 [label="Plastic <= 28.55\ngini = 0.6\nsamples = 17\nvalue = [1.66, 0.69, 0.0, 9.49, 0.0, 7.88, 0.0]\nclass = Year 4", fillcolor="#e4fbfb"] ;
75 -> 76 ;
77 [label="Straws <= 0.85\ngini = 0.59\nsamples = 16\nvalue = [1.24, 0.69, 0.0, 9.49, 0.0, 7.88, 0.0]\nclass = Year 4", fillcolor="#e3fbfb"] ;
76 -> 77 ;
78 [label="Bottle_Container_Caps <= 1.71\ngini = 0.59\nsamples = 14\nvalue = [1.24, 0.69, 0.0, 8.44, 0.0, 5.26, 0.0]\nclass = Year 4", fillcolor="#c2f7f6"] ;
77 -> 78 ;
79 [label="Plastic_Rope_Net___Flux <= 0.0\ngini = 0.56\nsamples = 12\nvalue = [1.24, 0.69, 0.0, 7.38, 0.0, 2.63, 0.0]\nclass = Year 4", fillcolor="#9af2f0"] ;
78 -> 79 ;
80 [label="Plastic <= 7.39\ngini = 0.68\nsamples = 8\nvalue = [1.24, 0.69, 0.0, 3.16, 0.0, 2.63, 0.0]\nclass = Year 4", fillcolor="#eafcfc"] ;
79 -> 80 ;
81 [label="Plastic <= 4.53\ngini = 0.57\nsamples = 4\nvalue = [0.41, 0.0, 0.0, 2.11, 0.0, 2.63, 0.0]\nclass = Year 6", fillcolor="#f2ddfb"] ;
80 -> 81 ;
82 [label="Bottle_Container_Caps___Flux <= 0.0\ngini = 0.27\nsamples = 3\nvalue = [0.41, 0.0, 0.0, 2.11, 0.0, 0.0, 0.0]\nclass = Year 4", fillcolor="#60eae8"] ;
81 -> 82 ;
83 [label="Plastic___Flux <= 0.0\ngini = 0.4\nsamples = 2\nvalue = [0.41, 0.0, 0.0, 1.05, 0.0, 0.0, 0.0]\nclass = Year 4", fillcolor="#87efed"] ;
82 -> 83 ;
84 [label="gini = 0.0\nsamples = 1\nvalue = [0.0, 0.0, 0.0, 1.05, 0.0, 0.0, 0.0]\nclass = Year 4", fillcolor="#39e5e2"] ;
83 -> 84 ;
85 [label="gini = 0.0\nsamples = 1\nvalue = [0.41, 0.0, 0.0, 0.0, 0.0, 0.0, 0.0]\nclass = Year 1", fillcolor="#e58139"] ;
83 -> 85 ;
86 [label="gini = 0.0\nsamples = 1\nvalue = [0.0, 0.0, 0.0, 1.05, 0.0, 0.0, 0.0]\nclass = Year 4", fillcolor="#39e5e2"] ;
82 -> 86 ;
87 [label="gini = 0.0\nsamples = 1\nvalue = [0.0, 0.0, 0.0, 0.0, 0.0, 2.63, 0.0]\nclass = Year 6", fillcolor="#b139e5"] ;
81 -> 87 ;
88 [label="Plastic_Rope_Net___Flux <= 0.0\ngini = 0.66\nsamples = 4\nvalue = [0.83, 0.69, 0.0, 1.05, 0.0, 0.0, 0.0]\nclass = Year 4", fillcolor="#e5fcfb"] ;
80 -> 88 ;
89 [label="Hard_Plastic_Fragments <= 10.17\ngini = 0.5\nsamples = 3\nvalue = [0.83, 0.69, 0.0, 0.0, 0.0, 0.0, 0.0]\nclass = Year 1", fillcolor="#fbeade"] ;
88 -> 89 ;
90 [label="gini = 0.0\nsamples = 2\nvalue = [0.83, 0.0, 0.0, 0.0, 0.0, 0.0, 0.0]\nclass = Year 1", fillcolor="#e58139"] ;
89 -> 90 ;
91 [label="gini = 0.0\nsamples = 1\nvalue = [0.0, 0.69, 0.0, 0.0, 0.0, 0.0, 0.0]\nclass = Year 2", fillcolor="#b7e539"] ;
89 -> 91 ;
92 [label="gini = 0.0\nsamples = 1\nvalue = [0.0, 0.0, 0.0, 1.05, 0.0, 0.0, 0.0]\nclass = Year 4", fillcolor="#39e5e2"] ;
88 -> 92 ;
93 [label="gini = 0.0\nsamples = 4\nvalue = [0.0, 0.0, 0.0, 4.22, 0.0, 0.0, 0.0]\nclass = Year 4", fillcolor="#39e5e2"] ;
79 -> 93 ;
94 [label="Bottle_Container_Caps___Flux <= 0.0\ngini = 0.41\nsamples = 2\nvalue = [0.0, 0.0, 0.0, 1.05, 0.0, 2.63, 0.0]\nclass = Year 6", fillcolor="#d088ef"] ;
78 -> 94 ;
95 [label="gini = 0.0\nsamples = 1\nvalue = [0.0, 0.0, 0.0, 0.0, 0.0, 2.63, 0.0]\nclass = Year 6", fillcolor="#b139e5"] ;
94 -> 95 ;
96 [label="gini = 0.0\nsamples = 1\nvalue = [0.0, 0.0, 0.0, 1.05, 0.0, 0.0, 0.0]\nclass = Year 4", fillcolor="#39e5e2"] ;
94 -> 96 ;
97 [label="Unclassified___Flux <= 4.15\ngini = 0.41\nsamples = 2\nvalue = [0.0, 0.0, 0.0, 1.05, 0.0, 2.63, 0.0]\nclass = Year 6", fillcolor="#d088ef"] ;
77 -> 97 ;
98 [label="gini = 0.0\nsamples = 1\nvalue = [0.0, 0.0, 0.0, 1.05, 0.0, 0.0, 0.0]\nclass = Year 4", fillcolor="#39e5e2"] ;
97 -> 98 ;
99 [label="gini = 0.0\nsamples = 1\nvalue = [0.0, 0.0, 0.0, 0.0, 0.0, 2.63, 0.0]\nclass = Year 6", fillcolor="#b139e5"] ;
97 -> 99 ;
100 [label="gini = -0.0\nsamples = 1\nvalue = [0.41, 0.0, 0.0, 0.0, 0.0, 0.0, 0.0]\nclass = Year 1", fillcolor="#e58139"] ;
76 -> 100 ;
101 [label="Plastic <= 15.14\ngini = 0.43\nsamples = 4\nvalue = [0.83, 0.0, 1.84, 0.0, 0.0, 0.0, 0.0]\nclass = Year 3", fillcolor="#92f19d"] ;
75 -> 101 ;
102 [label="Rubber <= 0.1\ngini = 0.3\nsamples = 3\nvalue = [0.41, 0.0, 1.84, 0.0, 0.0, 0.0, 0.0]\nclass = Year 3", fillcolor="#66eb75"] ;
101 -> 102 ;
103 [label="gini = 0.0\nsamples = 2\nvalue = [0.0, 0.0, 1.84, 0.0, 0.0, 0.0, 0.0]\nclass = Year 3", fillcolor="#39e54d"] ;
102 -> 103 ;
104 [label="gini = 0.0\nsamples = 1\nvalue = [0.41, 0.0, 0.0, 0.0, 0.0, 0.0, 0.0]\nclass = Year 1", fillcolor="#e58139"] ;
102 -> 104 ;
105 [label="gini = -0.0\nsamples = 1\nvalue = [0.41, 0.0, 0.0, 0.0, 0.0, 0.0, 0.0]\nclass = Year 1", fillcolor="#e58139"] ;
101 -> 105 ;
106 [label="gini = -0.0\nsamples = 2\nvalue = [0.0, 0.0, 1.84, 0.0, 0.0, 0.0, 0.0]\nclass = Year 3", fillcolor="#39e54d"] ;
74 -> 106 ;
107 [label="Plastic_Beverage_Bottles___Flux <= 0.0\ngini = 0.45\nsamples = 5\nvalue = [0.41, 0.69, 2.76, 0.0, 0.0, 0.0, 0.0]\nclass = Year 3", fillcolor="#7eee8b"] ;
73 -> 107 ;
108 [label="Hard_Plastic_Fragments <= 1.12\ngini = 0.0\nsamples = 3\nvalue = [0.0, 0.0, 2.76, 0.0, 0.0, 0.0, 0.0]\nclass = Year 3", fillcolor="#39e54d"] ;
107 -> 108 ;
109 [label="gini = 0.0\nsamples = 2\nvalue = [0.0, 0.0, 1.84, 0.0, 0.0, 0.0, 0.0]\nclass = Year 3", fillcolor="#39e54d"] ;
108 -> 109 ;
110 [label="gini = 0.0\nsamples = 1\nvalue = [0.0, 0.0, 0.92, 0.0, 0.0, 0.0, 0.0]\nclass = Year 3", fillcolor="#39e54d"] ;
108 -> 110 ;
111 [label="Plastic_Beverage_Bottles <= 4.24\ngini = 0.47\nsamples = 2\nvalue = [0.41, 0.69, 0.0, 0.0, 0.0, 0.0, 0.0]\nclass = Year 2", fillcolor="#e2f5b0"] ;
107 -> 111 ;
112 [label="gini = 0.0\nsamples = 1\nvalue = [0.41, 0.0, 0.0, 0.0, 0.0, 0.0, 0.0]\nclass = Year 1", fillcolor="#e58139"] ;
111 -> 112 ;
113 [label="gini = -0.0\nsamples = 1\nvalue = [0.0, 0.69, 0.0, 0.0, 0.0, 0.0, 0.0]\nclass = Year 2", fillcolor="#b7e539"] ;
111 -> 113 ;
114 [label="gini = -0.0\nsamples = 1\nvalue = [0.0, 0.0, 0.92, 0.0, 0.0, 0.0, 0.0]\nclass = Year 3", fillcolor="#39e54d"] ;
72 -> 114 ;
115 [label="Bags <= 0.16\ngini = 0.47\nsamples = 2\nvalue = [0.41, 0.69, 0.0, 0.0, 0.0, 0.0, 0.0]\nclass = Year 2", fillcolor="#e2f5b0"] ;
71 -> 115 ;
116 [label="gini = 0.0\nsamples = 1\nvalue = [0.41, 0.0, 0.0, 0.0, 0.0, 0.0, 0.0]\nclass = Year 1", fillcolor="#e58139"] ;
115 -> 116 ;
117 [label="gini = -0.0\nsamples = 1\nvalue = [0.0, 0.69, 0.0, 0.0, 0.0, 0.0, 0.0]\nclass = Year 2", fillcolor="#b7e539"] ;
115 -> 117 ;
118 [label="gini = 0.0\nsamples = 1\nvalue = [0.0, 0.0, 0.0, 0.0, 0.0, 2.63, 0.0]\nclass = Year 6", fillcolor="#b139e5"] ;
40 -> 118 ;
119 [label="gini = -0.0\nsamples = 1\nvalue = [0.0, 0.0, 0.92, 0.0, 0.0, 0.0, 0.0]\nclass = Year 3", fillcolor="#39e54d"] ;
39 -> 119 ;
120 [label="Fishing_Lures___Line___Flux <= 0.0\ngini = 0.62\nsamples = 3\nvalue = [0.0, 0.0, 0.0, 1.05, 1.52, 2.63, 0.0]\nclass = Year 6", fillcolor="#e8c3f7"] ;
38 -> 120 ;
121 [label="gini = 0.0\nsamples = 1\nvalue = [0.0, 0.0, 0.0, 0.0, 0.0, 2.63, 0.0]\nclass = Year 6", fillcolor="#b139e5"] ;
120 -> 121 ;
122 [label="Bottle_Container_Caps___Flux <= 0.0\ngini = 0.48\nsamples = 2\nvalue = [0.0, 0.0, 0.0, 1.05, 1.52, 0.0, 0.0]\nclass = Year 5", fillcolor="#c2cbf7"] ;
120 -> 122 ;
123 [label="gini = 0.0\nsamples = 1\nvalue = [0.0, 0.0, 0.0, 0.0, 1.52, 0.0, 0.0]\nclass = Year 5", fillcolor="#3956e5"] ;
122 -> 123 ;
124 [label="gini = 0.0\nsamples = 1\nvalue = [0.0, 0.0, 0.0, 1.05, 0.0, 0.0, 0.0]\nclass = Year 4", fillcolor="#39e5e2"] ;
122 -> 124 ;
125 [label="Filmed_Plastic_Fragments___Flux <= 0.0\ngini = 0.14\nsamples = 3\nvalue = [0.41, 0.0, 0.0, 0.0, 0.0, 5.26, 0.0]\nclass = Year 6", fillcolor="#b749e7"] ;
37 -> 125 ;
126 [label="gini = 0.0\nsamples = 2\nvalue = [0.0, 0.0, 0.0, 0.0, 0.0, 5.26, 0.0]\nclass = Year 6", fillcolor="#b139e5"] ;
125 -> 126 ;
127 [label="gini = 0.0\nsamples = 1\nvalue = [0.41, 0.0, 0.0, 0.0, 0.0, 0.0, 0.0]\nclass = Year 1", fillcolor="#e58139"] ;
125 -> 127 ;
128 [label="Plastic_Rope_Net___Flux <= 0.0\ngini = 0.67\nsamples = 13\nvalue = [0.0, 1.38, 4.59, 2.11, 0.0, 7.88, 14.98]\nclass = Year 7", fillcolor="#f7c2da"] ;
36 -> 128 ;
129 [label="Aluminum_Tin_Cans <= 0.36\ngini = 0.54\nsamples = 8\nvalue = [0.0, 1.38, 1.84, 1.05, 0.0, 7.88, 0.0]\nclass = Year 6", fillcolor="#d18bf0"] ;
128 -> 129 ;
130 [label="gini = 0.0\nsamples = 2\nvalue = [0.0, 1.38, 0.0, 0.0, 0.0, 0.0, 0.0]\nclass = Year 2", fillcolor="#b7e539"] ;
129 -> 130 ;
131 [label="Unclassified___Flux <= 6.18\ngini = 0.43\nsamples = 6\nvalue = [0.0, 0.0, 1.84, 1.05, 0.0, 7.88, 0.0]\nclass = Year 6", fillcolor="#ca79ed"] ;
129 -> 131 ;
132 [label="Plastic___Flux <= 0.0\ngini = 0.63\nsamples = 4\nvalue = [0.0, 0.0, 1.84, 1.05, 0.0, 2.63, 0.0]\nclass = Year 6", fillcolor="#eed5f9"] ;
131 -> 132 ;
133 [label="Aluminum_Tin_Cans___Flux <= 0.0\ngini = 0.48\nsamples = 3\nvalue = [0.0, 0.0, 1.84, 0.0, 0.0, 2.63, 0.0]\nclass = Year 6", fillcolor="#e8c3f7"] ;
132 -> 133 ;
134 [label="Plastic___Flux <= 0.0\ngini = 0.38\nsamples = 2\nvalue = [0.0, 0.0, 0.92, 0.0, 0.0, 2.63, 0.0]\nclass = Year 6", fillcolor="#cc7eee"] ;
133 -> 134 ;
135 [label="gini = 0.0\nsamples = 1\nvalue = [0.0, 0.0, 0.0, 0.0, 0.0, 2.63, 0.0]\nclass = Year 6", fillcolor="#b139e5"] ;
134 -> 135 ;
136 [label="gini = 0.0\nsamples = 1\nvalue = [0.0, 0.0, 0.92, 0.0, 0.0, 0.0, 0.0]\nclass = Year 3", fillcolor="#39e54d"] ;
134 -> 136 ;
137 [label="gini = 0.0\nsamples = 1\nvalue = [0.0, 0.0, 0.92, 0.0, 0.0, 0.0, 0.0]\nclass = Year 3", fillcolor="#39e54d"] ;
133 -> 137 ;
138 [label="gini = 0.0\nsamples = 1\nvalue = [0.0, 0.0, 0.0, 1.05, 0.0, 0.0, 0.0]\nclass = Year 4", fillcolor="#39e5e2"] ;
132 -> 138 ;
139 [label="gini = 0.0\nsamples = 2\nvalue = [0.0, 0.0, 0.0, 0.0, 0.0, 5.26, 0.0]\nclass = Year 6", fillcolor="#b139e5"] ;
131 -> 139 ;
140 [label="Plastic <= 12.03\ngini = 0.34\nsamples = 5\nvalue = [0.0, 0.0, 2.76, 1.05, 0.0, 0.0, 14.98]\nclass = Year 7", fillcolor="#eb68a3"] ;
128 -> 140 ;
141 [label="Plastic_Rope_Net <= 2.38\ngini = 0.28\nsamples = 4\nvalue = [0.0, 0.0, 1.84, 1.05, 0.0, 0.0, 14.98]\nclass = Year 7", fillcolor="#ea5d9c"] ;
140 -> 141 ;
142 [label="Plastic_Rope_Net___Flux <= 0.0\ngini = 0.46\nsamples = 3\nvalue = [0.0, 0.0, 1.84, 1.05, 0.0, 0.0, 0.0]\nclass = Year 3", fillcolor="#abf4b3"] ;
141 -> 142 ;
143 [label="gini = 0.0\nsamples = 1\nvalue = [0.0, 0.0, 0.92, 0.0, 0.0, 0.0, 0.0]\nclass = Year 3", fillcolor="#39e54d"] ;
142 -> 143 ;
144 [label="Hard_Plastic_Fragments <= 1.06\ngini = 0.5\nsamples = 2\nvalue = [0.0, 0.0, 0.92, 1.05, 0.0, 0.0, 0.0]\nclass = Year 4", fillcolor="#e5fcfb"] ;
142 -> 144 ;
145 [label="gini = 0.0\nsamples = 1\nvalue = [0.0, 0.0, 0.0, 1.05, 0.0, 0.0, 0.0]\nclass = Year 4", fillcolor="#39e5e2"] ;
144 -> 145 ;
146 [label="gini = 0.0\nsamples = 1\nvalue = [0.0, 0.0, 0.92, 0.0, 0.0, 0.0, 0.0]\nclass = Year 3", fillcolor="#39e54d"] ;
144 -> 146 ;
147 [label="gini = 0.0\nsamples = 1\nvalue = [0.0, 0.0, 0.0, 0.0, 0.0, 0.0, 14.98]\nclass = Year 7", fillcolor="#e53986"] ;
141 -> 147 ;
148 [label="gini = -0.0\nsamples = 1\nvalue = [0.0, 0.0, 0.92, 0.0, 0.0, 0.0, 0.0]\nclass = Year 3", fillcolor="#39e54d"] ;
140 -> 148 ;
149 [label="Aluminum_Tin_Cans <= 1.0\ngini = 0.23\nsamples = 4\nvalue = [0.41, 0.0, 2.76, 0.0, 0.0, 0.0, 0.0]\nclass = Year 3", fillcolor="#57e968"] ;
35 -> 149 ;
150 [label="Bags <= 0.88\ngini = 0.3\nsamples = 3\nvalue = [0.41, 0.0, 1.84, 0.0, 0.0, 0.0, 0.0]\nclass = Year 3", fillcolor="#66eb75"] ;
149 -> 150 ;
151 [label="Plastic___Flux <= 0.0\ngini = 0.43\nsamples = 2\nvalue = [0.41, 0.0, 0.92, 0.0, 0.0, 0.0, 0.0]\nclass = Year 3", fillcolor="#92f19d"] ;
150 -> 151 ;
152 [label="gini = 0.0\nsamples = 1\nvalue = [0.41, 0.0, 0.0, 0.0, 0.0, 0.0, 0.0]\nclass = Year 1", fillcolor="#e58139"] ;
151 -> 152 ;
153 [label="gini = -0.0\nsamples = 1\nvalue = [0.0, 0.0, 0.92, 0.0, 0.0, 0.0, 0.0]\nclass = Year 3", fillcolor="#39e54d"] ;
151 -> 153 ;
154 [label="gini = 0.0\nsamples = 1\nvalue = [0.0, 0.0, 0.92, 0.0, 0.0, 0.0, 0.0]\nclass = Year 3", fillcolor="#39e54d"] ;
150 -> 154 ;
155 [label="gini = 0.0\nsamples = 1\nvalue = [0.0, 0.0, 0.92, 0.0, 0.0, 0.0, 0.0]\nclass = Year 3", fillcolor="#39e54d"] ;
149 -> 155 ;
156 [label="gini = 0.0\nsamples = 1\nvalue = [0.0, 0.0, 0.0, 1.05, 0.0, 0.0, 0.0]\nclass = Year 4", fillcolor="#39e5e2"] ;
34 -> 156 ;
157 [label="Plastic <= 13.5\ngini = 0.72\nsamples = 17\nvalue = [1.24, 1.38, 2.76, 2.11, 7.6, 2.63, 14.98]\nclass = Year 7", fillcolor="#f7c5db"] ;
33 -> 157 ;
158 [label="Filmed_Plastic_Fragments___Flux <= 0.0\ngini = 0.67\nsamples = 13\nvalue = [0.83, 0.69, 0.92, 2.11, 7.6, 2.63, 14.98]\nclass = Year 7", fillcolor="#f6bdd7"] ;
157 -> 158 ;
159 [label="Plastic_Beverage_Bottles___Flux <= 0.0\ngini = 0.6\nsamples = 6\nvalue = [0.41, 0.0, 0.92, 0.0, 4.56, 2.63, 0.0]\nclass = Year 5", fillcolor="#bec8f6"] ;
158 -> 159 ;
160 [label="Plastic_Rope_Net <= 0.73\ngini = 0.65\nsamples = 5\nvalue = [0.41, 0.0, 0.92, 0.0, 3.04, 2.63, 0.0]\nclass = Year 5", fillcolor="#eceffd"] ;
159 -> 160 ;
161 [label="Hard_Plastic_Fragments___Flux <= 0.0\ngini = 0.56\nsamples = 4\nvalue = [0.41, 0.0, 0.0, 0.0, 3.04, 2.63, 0.0]\nclass = Year 5", fillcolor="#e7ebfc"] ;
160 -> 161 ;
162 [label="Hard_Plastic_Fragments <= 0.81\ngini = 0.46\nsamples = 2\nvalue = [0.0, 0.0, 0.0, 0.0, 1.52, 2.63, 0.0]\nclass = Year 6", fillcolor="#deacf4"] ;
161 -> 162 ;
163 [label="gini = 0.0\nsamples = 1\nvalue = [0.0, 0.0, 0.0, 0.0, 0.0, 2.63, 0.0]\nclass = Year 6", fillcolor="#b139e5"] ;
162 -> 163 ;
164 [label="gini = 0.0\nsamples = 1\nvalue = [0.0, 0.0, 0.0, 0.0, 1.52, 0.0, 0.0]\nclass = Year 5", fillcolor="#3956e5"] ;
162 -> 164 ;
165 [label="Paper_and_Cardboard <= 0.0\ngini = 0.34\nsamples = 2\nvalue = [0.41, 0.0, 0.0, 0.0, 1.52, 0.0, 0.0]\nclass = Year 5", fillcolor="#6f84ec"] ;
161 -> 165 ;
166 [label="gini = 0.0\nsamples = 1\nvalue = [0.0, 0.0, 0.0, 0.0, 1.52, 0.0, 0.0]\nclass = Year 5", fillcolor="#3956e5"] ;
165 -> 166 ;
167 [label="gini = 0.0\nsamples = 1\nvalue = [0.41, 0.0, 0.0, 0.0, 0.0, 0.0, 0.0]\nclass = Year 1", fillcolor="#e58139"] ;
165 -> 167 ;
168 [label="gini = 0.0\nsamples = 1\nvalue = [0.0, 0.0, 0.92, 0.0, 0.0, 0.0, 0.0]\nclass = Year 3", fillcolor="#39e54d"] ;
160 -> 168 ;
169 [label="gini = 0.0\nsamples = 1\nvalue = [0.0, 0.0, 0.0, 0.0, 1.52, 0.0, 0.0]\nclass = Year 5", fillcolor="#3956e5"] ;
159 -> 169 ;
170 [label="Bottle_Container_Caps___Flux <= 0.0\ngini = 0.47\nsamples = 7\nvalue = [0.41, 0.69, 0.0, 2.11, 3.04, 0.0, 14.98]\nclass = Year 7", fillcolor="#ee7db0"] ;
158 -> 170 ;
171 [label="Filmed_Plastic_Fragments <= 1.37\ngini = 0.63\nsamples = 6\nvalue = [0.41, 0.69, 0.0, 2.11, 3.04, 0.0, 0.0]\nclass = Year 5", fillcolor="#d3d9f9"] ;
170 -> 171 ;
172 [label="Plastic <= 8.73\ngini = 0.27\nsamples = 3\nvalue = [0.41, 0.0, 0.0, 2.11, 0.0, 0.0, 0.0]\nclass = Year 4", fillcolor="#60eae8"] ;
171 -> 172 ;
173 [label="Filmed_Plastic_Fragments___Flux <= 0.0\ngini = 0.4\nsamples = 2\nvalue = [0.41, 0.0, 0.0, 1.05, 0.0, 0.0, 0.0]\nclass = Year 4", fillcolor="#87efed"] ;
172 -> 173 ;
174 [label="gini = 0.0\nsamples = 1\nvalue = [0.0, 0.0, 0.0, 1.05, 0.0, 0.0, 0.0]\nclass = Year 4", fillcolor="#39e5e2"] ;
173 -> 174 ;
175 [label="gini = 0.0\nsamples = 1\nvalue = [0.41, 0.0, 0.0, 0.0, 0.0, 0.0, 0.0]\nclass = Year 1", fillcolor="#e58139"] ;
173 -> 175 ;
176 [label="gini = 0.0\nsamples = 1\nvalue = [0.0, 0.0, 0.0, 1.05, 0.0, 0.0, 0.0]\nclass = Year 4", fillcolor="#39e5e2"] ;
172 -> 176 ;
177 [label="Hard_Plastic_Fragments___Flux <= 0.0\ngini = 0.3\nsamples = 3\nvalue = [0.0, 0.69, 0.0, 0.0, 3.04, 0.0, 0.0]\nclass = Year 5", fillcolor="#667ceb"] ;
171 -> 177 ;
178 [label="Balloons_Mylar___Flux <= 0.0\ngini = 0.43\nsamples = 2\nvalue = [0.0, 0.69, 0.0, 0.0, 1.52, 0.0, 0.0]\nclass = Year 5", fillcolor="#93a3f1"] ;
177 -> 178 ;
179 [label="gini = 0.0\nsamples = 1\nvalue = [0.0, 0.0, 0.0, 0.0, 1.52, 0.0, 0.0]\nclass = Year 5", fillcolor="#3956e5"] ;
178 -> 179 ;
180 [label="gini = 0.0\nsamples = 1\nvalue = [0.0, 0.69, 0.0, 0.0, 0.0, 0.0, 0.0]\nclass = Year 2", fillcolor="#b7e539"] ;
178 -> 180 ;
181 [label="gini = -0.0\nsamples = 1\nvalue = [0.0, 0.0, 0.0, 0.0, 1.52, 0.0, 0.0]\nclass = Year 5", fillcolor="#3956e5"] ;
177 -> 181 ;
182 [label="gini = 0.0\nsamples = 1\nvalue = [0.0, 0.0, 0.0, 0.0, 0.0, 0.0, 14.98]\nclass = Year 7", fillcolor="#e53986"] ;
170 -> 182 ;
183 [label="Plastic_Other <= 0.75\ngini = 0.54\nsamples = 4\nvalue = [0.41, 0.69, 1.84, 0.0, 0.0, 0.0, 0.0]\nclass = Year 3", fillcolor="#9af2a4"] ;
157 -> 183 ;
184 [label="Rubber___Flux <= 0.0\ngini = 0.64\nsamples = 3\nvalue = [0.41, 0.69, 0.92, 0.0, 0.0, 0.0, 0.0]\nclass = Year 3", fillcolor="#ddfbe1"] ;
183 -> 184 ;
185 [label="Paper_Bags___Flux <= 0.41\ngini = 0.43\nsamples = 2\nvalue = [0.41, 0.0, 0.92, 0.0, 0.0, 0.0, 0.0]\nclass = Year 3", fillcolor="#92f19d"] ;
184 -> 185 ;
186 [label="gini = 0.0\nsamples = 1\nvalue = [0.41, 0.0, 0.0, 0.0, 0.0, 0.0, 0.0]\nclass = Year 1", fillcolor="#e58139"] ;
185 -> 186 ;
187 [label="gini = -0.0\nsamples = 1\nvalue = [0.0, 0.0, 0.92, 0.0, 0.0, 0.0, 0.0]\nclass = Year 3", fillcolor="#39e54d"] ;
185 -> 187 ;
188 [label="gini = -0.0\nsamples = 1\nvalue = [0.0, 0.69, 0.0, 0.0, 0.0, 0.0, 0.0]\nclass = Year 2", fillcolor="#b7e539"] ;
184 -> 188 ;
189 [label="gini = 0.0\nsamples = 1\nvalue = [0.0, 0.0, 0.92, 0.0, 0.0, 0.0, 0.0]\nclass = Year 3", fillcolor="#39e54d"] ;
183 -> 189 ;
190 [label="gini = 0.0\nsamples = 1\nvalue = [0.0, 0.0, 0.0, 0.0, 1.52, 0.0, 0.0]\nclass = Year 5", fillcolor="#3956e5"] ;
32 -> 190 ;
191 [label="Plastic_Beverage_Bottles___Flux <= 0.0\ngini = 0.79\nsamples = 31\nvalue = [2.9, 1.38, 8.27, 8.44, 3.04, 5.26, 14.98]\nclass = Year 7", fillcolor="#fadbe9"] ;
31 -> 191 ;
192 [label="Other_Jugs_Containers <= 0.34\ngini = 0.79\nsamples = 27\nvalue = [2.49, 1.38, 7.35, 7.38, 3.04, 5.26, 0.0]\nclass = Year 4", fillcolor="#ffffff"] ;
191 -> 192 ;
193 [label="Aerosol_Cans___Flux <= 0.0\ngini = 0.74\nsamples = 22\nvalue = [2.49, 1.38, 6.43, 6.33, 0.0, 2.63, 0.0]\nclass = Year 3", fillcolor="#fdfffe"] ;
192 -> 193 ;
194 [label="Balloons_Mylar <= 0.91\ngini = 0.75\nsamples = 21\nvalue = [2.49, 1.38, 5.51, 6.33, 0.0, 2.63, 0.0]\nclass = Year 4", fillcolor="#f2fdfd"] ;
193 -> 194 ;
195 [label="Aluminum_Tin_Cans___Flux <= 0.0\ngini = 0.73\nsamples = 19\nvalue = [1.66, 1.38, 5.51, 6.33, 0.0, 2.63, 0.0]\nclass = Year 4", fillcolor="#f2fdfd"] ;
194 -> 195 ;
196 [label="Cups___Flux <= 0.0\ngini = 0.74\nsamples = 18\nvalue = [1.66, 1.38, 4.59, 6.33, 0.0, 2.63, 0.0]\nclass = Year 4", fillcolor="#e2fbfb"] ;
195 -> 196 ;
197 [label="Plastic_Rope_Net___Flux <= 0.0\ngini = 0.73\nsamples = 17\nvalue = [1.66, 1.38, 3.68, 6.33, 0.0, 2.63, 0.0]\nclass = Year 4", fillcolor="#d3f9f9"] ;
196 -> 197 ;
198 [label="Fishing_Lures___Line <= 2.94\ngini = 0.75\nsamples = 16\nvalue = [1.66, 1.38, 3.68, 5.27, 0.0, 2.63, 0.0]\nclass = Year 4", fillcolor="#e2fbfb"] ;
197 -> 198 ;
199 [label="Plastic___Flux <= 0.0\ngini = 0.77\nsamples = 15\nvalue = [1.66, 1.38, 3.68, 4.22, 0.0, 2.63, 0.0]\nclass = Year 4", fillcolor="#f4fefd"] ;
198 -> 199 ;
200 [label="Cigarettes <= 0.55\ngini = 0.77\nsamples = 13\nvalue = [1.66, 1.38, 3.68, 2.11, 0.0, 2.63, 0.0]\nclass = Year 3", fillcolor="#e7fcea"] ;
199 -> 200 ;
201 [label="Total_Debris <= 0.0\ngini = 0.74\nsamples = 10\nvalue = [0.83, 1.38, 3.68, 1.05, 0.0, 2.63, 0.0]\nclass = Year 3", fillcolor="#e1fbe4"] ;
200 -> 201 ;
202 [label="Plastic___Flux <= 0.0\ngini = 0.48\nsamples = 3\nvalue = [0.0, 0.0, 1.84, 0.0, 0.0, 2.63, 0.0]\nclass = Year 6", fillcolor="#e8c3f7"] ;
201 -> 202 ;
203 [label="gini = 0.0\nsamples = 1\nvalue = [0.0, 0.0, 0.92, 0.0, 0.0, 0.0, 0.0]\nclass = Year 3", fillcolor="#39e54d"] ;
202 -> 203 ;
204 [label="Unclassified___Flux <= 4.68\ngini = 0.38\nsamples = 2\nvalue = [0.0, 0.0, 0.92, 0.0, 0.0, 2.63, 0.0]\nclass = Year 6", fillcolor="#cc7eee"] ;
202 -> 204 ;
205 [label="gini = 0.0\nsamples = 1\nvalue = [0.0, 0.0, 0.0, 0.0, 0.0, 2.63, 0.0]\nclass = Year 6", fillcolor="#b139e5"] ;
204 -> 205 ;
206 [label="gini = 0.0\nsamples = 1\nvalue = [0.0, 0.0, 0.92, 0.0, 0.0, 0.0, 0.0]\nclass = Year 3", fillcolor="#39e54d"] ;
204 -> 206 ;
207 [label="Bags___Flux <= 0.0\ngini = 0.73\nsamples = 7\nvalue = [0.83, 1.38, 1.84, 1.05, 0.0, 0.0, 0.0]\nclass = Year 3", fillcolor="#e7fce9"] ;
201 -> 207 ;
208 [label="Plastic_Rope_Net <= 1.36\ngini = 0.64\nsamples = 6\nvalue = [0.83, 1.38, 1.84, 0.0, 0.0, 0.0, 0.0]\nclass = Year 3", fillcolor="#ddfbe1"] ;
207 -> 208 ;
209 [label="Plastic <= 7.61\ngini = 0.54\nsamples = 4\nvalue = [0.41, 0.69, 1.84, 0.0, 0.0, 0.0, 0.0]\nclass = Year 3", fillcolor="#9af2a4"] ;
208 -> 209 ;
210 [label="Food_Wrappers <= 1.45\ngini = 0.64\nsamples = 3\nvalue = [0.41, 0.69, 0.92, 0.0, 0.0, 0.0, 0.0]\nclass = Year 3", fillcolor="#ddfbe1"] ;
209 -> 210 ;
211 [label="Total_Debris <= 0.0\ngini = 0.43\nsamples = 2\nvalue = [0.41, 0.0, 0.92, 0.0, 0.0, 0.0, 0.0]\nclass = Year 3", fillcolor="#92f19d"] ;
210 -> 211 ;
212 [label="gini = 0.0\nsamples = 1\nvalue = [0.41, 0.0, 0.0, 0.0, 0.0, 0.0, 0.0]\nclass = Year 1", fillcolor="#e58139"] ;
211 -> 212 ;
213 [label="gini = -0.0\nsamples = 1\nvalue = [0.0, 0.0, 0.92, 0.0, 0.0, 0.0, 0.0]\nclass = Year 3", fillcolor="#39e54d"] ;
211 -> 213 ;
214 [label="gini = -0.0\nsamples = 1\nvalue = [0.0, 0.69, 0.0, 0.0, 0.0, 0.0, 0.0]\nclass = Year 2", fillcolor="#b7e539"] ;
210 -> 214 ;
215 [label="gini = 0.0\nsamples = 1\nvalue = [0.0, 0.0, 0.92, 0.0, 0.0, 0.0, 0.0]\nclass = Year 3", fillcolor="#39e54d"] ;
209 -> 215 ;
216 [label="Food_Wrappers___Flux <= 0.0\ngini = 0.47\nsamples = 2\nvalue = [0.41, 0.69, 0.0, 0.0, 0.0, 0.0, 0.0]\nclass = Year 2", fillcolor="#e2f5b0"] ;
208 -> 216 ;
217 [label="gini = 0.0\nsamples = 1\nvalue = [0.41, 0.0, 0.0, 0.0, 0.0, 0.0, 0.0]\nclass = Year 1", fillcolor="#e58139"] ;
216 -> 217 ;
218 [label="gini = -0.0\nsamples = 1\nvalue = [0.0, 0.69, 0.0, 0.0, 0.0, 0.0, 0.0]\nclass = Year 2", fillcolor="#b7e539"] ;
216 -> 218 ;
219 [label="gini = 0.0\nsamples = 1\nvalue = [0.0, 0.0, 0.0, 1.05, 0.0, 0.0, 0.0]\nclass = Year 4", fillcolor="#39e5e2"] ;
207 -> 219 ;
220 [label="Rubber <= 0.84\ngini = 0.49\nsamples = 3\nvalue = [0.83, 0.0, 0.0, 1.05, 0.0, 0.0, 0.0]\nclass = Year 4", fillcolor="#d5f9f9"] ;
200 -> 220 ;
221 [label="Cigarettes___Flux <= 0.0\ngini = 0.4\nsamples = 2\nvalue = [0.41, 0.0, 0.0, 1.05, 0.0, 0.0, 0.0]\nclass = Year 4", fillcolor="#87efed"] ;
220 -> 221 ;
222 [label="gini = 0.0\nsamples = 1\nvalue = [0.41, 0.0, 0.0, 0.0, 0.0, 0.0, 0.0]\nclass = Year 1", fillcolor="#e58139"] ;
221 -> 222 ;
223 [label="gini = 0.0\nsamples = 1\nvalue = [0.0, 0.0, 0.0, 1.05, 0.0, 0.0, 0.0]\nclass = Year 4", fillcolor="#39e5e2"] ;
221 -> 223 ;
224 [label="gini = 0.0\nsamples = 1\nvalue = [0.41, 0.0, 0.0, 0.0, 0.0, 0.0, 0.0]\nclass = Year 1", fillcolor="#e58139"] ;
220 -> 224 ;
225 [label="gini = 0.0\nsamples = 2\nvalue = [0.0, 0.0, 0.0, 2.11, 0.0, 0.0, 0.0]\nclass = Year 4", fillcolor="#39e5e2"] ;
199 -> 225 ;
226 [label="gini = 0.0\nsamples = 1\nvalue = [0.0, 0.0, 0.0, 1.05, 0.0, 0.0, 0.0]\nclass = Year 4", fillcolor="#39e5e2"] ;
198 -> 226 ;
227 [label="gini = 0.0\nsamples = 1\nvalue = [0.0, 0.0, 0.0, 1.05, 0.0, 0.0, 0.0]\nclass = Year 4", fillcolor="#39e5e2"] ;
197 -> 227 ;
228 [label="gini = -0.0\nsamples = 1\nvalue = [0.0, 0.0, 0.92, 0.0, 0.0, 0.0, 0.0]\nclass = Year 3", fillcolor="#39e54d"] ;
196 -> 228 ;
229 [label="gini = -0.0\nsamples = 1\nvalue = [0.0, 0.0, 0.92, 0.0, 0.0, 0.0, 0.0]\nclass = Year 3", fillcolor="#39e54d"] ;
195 -> 229 ;
230 [label="gini = -0.0\nsamples = 2\nvalue = [0.83, 0.0, 0.0, 0.0, 0.0, 0.0, 0.0]\nclass = Year 1", fillcolor="#e58139"] ;
194 -> 230 ;
231 [label="gini = -0.0\nsamples = 1\nvalue = [0.0, 0.0, 0.92, 0.0, 0.0, 0.0, 0.0]\nclass = Year 3", fillcolor="#39e54d"] ;
193 -> 231 ;
232 [label="Plastic_Other <= 1.83\ngini = 0.69\nsamples = 5\nvalue = [0.0, 0.0, 0.92, 1.05, 3.04, 2.63, 0.0]\nclass = Year 5", fillcolor="#eff1fd"] ;
192 -> 232 ;
233 [label="Processed_Lumber___Flux <= 0.0\ngini = 0.5\nsamples = 3\nvalue = [0.0, 0.0, 0.0, 0.0, 3.04, 2.63, 0.0]\nclass = Year 5", fillcolor="#e4e8fb"] ;
232 -> 233 ;
234 [label="Food_Wrappers___Flux <= 0.0\ngini = 0.46\nsamples = 2\nvalue = [0.0, 0.0, 0.0, 0.0, 1.52, 2.63, 0.0]\nclass = Year 6", fillcolor="#deacf4"] ;
233 -> 234 ;
235 [label="gini = 0.0\nsamples = 1\nvalue = [0.0, 0.0, 0.0, 0.0, 1.52, 0.0, 0.0]\nclass = Year 5", fillcolor="#3956e5"] ;
234 -> 235 ;
236 [label="gini = 0.0\nsamples = 1\nvalue = [0.0, 0.0, 0.0, 0.0, 0.0, 2.63, 0.0]\nclass = Year 6", fillcolor="#b139e5"] ;
234 -> 236 ;
237 [label="gini = 0.0\nsamples = 1\nvalue = [0.0, 0.0, 0.0, 0.0, 1.52, 0.0, 0.0]\nclass = Year 5", fillcolor="#3956e5"] ;
233 -> 237 ;
238 [label="Bottle_Container_Caps___Flux <= 0.0\ngini = 0.5\nsamples = 2\nvalue = [0.0, 0.0, 0.92, 1.05, 0.0, 0.0, 0.0]\nclass = Year 4", fillcolor="#e5fcfb"] ;
232 -> 238 ;
239 [label="gini = 0.0\nsamples = 1\nvalue = [0.0, 0.0, 0.92, 0.0, 0.0, 0.0, 0.0]\nclass = Year 3", fillcolor="#39e54d"] ;
238 -> 239 ;
240 [label="gini = 0.0\nsamples = 1\nvalue = [0.0, 0.0, 0.0, 1.05, 0.0, 0.0, 0.0]\nclass = Year 4", fillcolor="#39e5e2"] ;
238 -> 240 ;
241 [label="Rubber_Fragments___Flux <= 0.51\ngini = 0.25\nsamples = 4\nvalue = [0.41, 0.0, 0.92, 1.05, 0.0, 0.0, 14.98]\nclass = Year 7", fillcolor="#e95698"] ;
191 -> 241 ;
242 [label="Hard_Plastic_Fragments___Flux <= 0.0\ngini = 0.5\nsamples = 2\nvalue = [0.0, 0.0, 0.92, 1.05, 0.0, 0.0, 0.0]\nclass = Year 4", fillcolor="#e5fcfb"] ;
241 -> 242 ;
243 [label="gini = 0.0\nsamples = 1\nvalue = [0.0, 0.0, 0.92, 0.0, 0.0, 0.0, 0.0]\nclass = Year 3", fillcolor="#39e54d"] ;
242 -> 243 ;
244 [label="gini = 0.0\nsamples = 1\nvalue = [0.0, 0.0, 0.0, 1.05, 0.0, 0.0, 0.0]\nclass = Year 4", fillcolor="#39e5e2"] ;
242 -> 244 ;
245 [label="Balloons_Latex___Flux <= 0.98\ngini = 0.05\nsamples = 2\nvalue = [0.41, 0.0, 0.0, 0.0, 0.0, 0.0, 14.98]\nclass = Year 7", fillcolor="#e63e89"] ;
241 -> 245 ;
246 [label="gini = 0.0\nsamples = 1\nvalue = [0.0, 0.0, 0.0, 0.0, 0.0, 0.0, 14.98]\nclass = Year 7", fillcolor="#e53986"] ;
245 -> 246 ;
247 [label="gini = 0.0\nsamples = 1\nvalue = [0.41, 0.0, 0.0, 0.0, 0.0, 0.0, 0.0]\nclass = Year 1", fillcolor="#e58139"] ;
245 -> 247 ;
248 [label="Unclassified___Flux <= 7.6\ngini = 0.81\nsamples = 124\nvalue = [9.94, 15.22, 28.49, 28.48, 21.29, 15.77, 0.0]\nclass = Year 3", fillcolor="#ffffff"] ;
30 -> 248 ;
249 [label="Plastic_Other <= 2.94\ngini = 0.76\nsamples = 59\nvalue = [3.31, 3.46, 12.87, 18.99, 18.25, 5.26, 0.0]\nclass = Year 4", fillcolor="#fcffff"] ;
248 -> 249 ;
250 [label="Paper_Bags___Flux <= 0.81\ngini = 0.77\nsamples = 55\nvalue = [3.31, 3.46, 12.87, 14.77, 18.25, 5.26, 0.0]\nclass = Year 5", fillcolor="#eff1fd"] ;
249 -> 250 ;
251 [label="Bags <= 0.67\ngini = 0.76\nsamples = 54\nvalue = [3.31, 3.46, 12.87, 14.77, 18.25, 2.63, 0.0]\nclass = Year 5", fillcolor="#eef0fd"] ;
250 -> 251 ;
252 [label="Fishing_Lures___Line <= 1.1\ngini = 0.77\nsamples = 49\nvalue = [3.31, 3.46, 12.87, 12.66, 13.69, 2.63, 0.0]\nclass = Year 5", fillcolor="#fafbfe"] ;
251 -> 252 ;
253 [label="Other_Jugs_Containers <= 0.1\ngini = 0.77\nsamples = 48\nvalue = [3.31, 3.46, 12.87, 12.66, 12.17, 2.63, 0.0]\nclass = Year 3", fillcolor="#fefffe"] ;
252 -> 253 ;
254 [label="Rubber_Other <= 0.22\ngini = 0.77\nsamples = 44\nvalue = [3.31, 2.77, 12.87, 12.66, 7.6, 2.63, 0.0]\nclass = Year 3", fillcolor="#fefffe"] ;
253 -> 254 ;
255 [label="Rubber_Gloves <= 0.71\ngini = 0.77\nsamples = 42\nvalue = [3.31, 2.77, 12.87, 10.55, 7.6, 2.63, 0.0]\nclass = Year 3", fillcolor="#effdf1"] ;
254 -> 255 ;
256 [label="Hard_Plastic_Fragments <= 1.77\ngini = 0.77\nsamples = 41\nvalue = [3.31, 2.77, 12.87, 10.55, 6.08, 2.63, 0.0]\nclass = Year 3", fillcolor="#eefdf0"] ;
255 -> 256 ;
257 [label="Plastic <= 4.02\ngini = 0.74\nsamples = 26\nvalue = [2.07, 2.08, 10.11, 5.27, 1.52, 2.63, 0.0]\nclass = Year 3", fillcolor="#cbf8d0"] ;
256 -> 257 ;
258 [label="Metal <= 0.63\ngini = 0.68\nsamples = 14\nvalue = [0.41, 0.69, 7.35, 2.11, 1.52, 2.63, 0.0]\nclass = Year 3", fillcolor="#b2f5b9"] ;
257 -> 258 ;
259 [label="Cigarettes___Flux <= 0.0\ngini = 0.73\nsamples = 12\nvalue = [0.41, 0.69, 5.51, 2.11, 1.52, 2.63, 0.0]\nclass = Year 3", fillcolor="#c7f8cd"] ;
258 -> 259 ;
260 [label="Unclassified___Flux <= 1.98\ngini = 0.71\nsamples = 11\nvalue = [0.0, 0.69, 5.51, 2.11, 1.52, 2.63, 0.0]\nclass = Year 3", fillcolor="#c5f7cb"] ;
259 -> 260 ;
261 [label="gini = 0.0\nsamples = 4\nvalue = [0.0, 0.0, 3.68, 0.0, 0.0, 0.0, 0.0]\nclass = Year 3", fillcolor="#39e54d"] ;
260 -> 261 ;
262 [label="Filmed_Plastic_Fragments <= 0.38\ngini = 0.77\nsamples = 7\nvalue = [0.0, 0.69, 1.84, 2.11, 1.52, 2.63, 0.0]\nclass = Year 6", fillcolor="#f9f0fd"] ;
260 -> 262 ;
263 [label="Food_Wrappers___Flux <= 0.0\ngini = 0.66\nsamples = 3\nvalue = [0.0, 0.69, 0.92, 1.05, 0.0, 0.0, 0.0]\nclass = Year 4", fillcolor="#f0fdfd"] ;
262 -> 263 ;
264 [label="Hard_Plastic_Fragments___Flux <= 0.0\ngini = 0.49\nsamples = 2\nvalue = [0.0, 0.69, 0.92, 0.0, 0.0, 0.0, 0.0]\nclass = Year 3", fillcolor="#cef9d3"] ;
263 -> 264 ;
265 [label="gini = 0.0\nsamples = 1\nvalue = [0.0, 0.69, 0.0, 0.0, 0.0, 0.0, 0.0]\nclass = Year 2", fillcolor="#b7e539"] ;
264 -> 265 ;
266 [label="gini = 0.0\nsamples = 1\nvalue = [0.0, 0.0, 0.92, 0.0, 0.0, 0.0, 0.0]\nclass = Year 3", fillcolor="#39e54d"] ;
264 -> 266 ;
267 [label="gini = 0.0\nsamples = 1\nvalue = [0.0, 0.0, 0.0, 1.05, 0.0, 0.0, 0.0]\nclass = Year 4", fillcolor="#39e5e2"] ;
263 -> 267 ;
268 [label="Foamed_Plastic_Fragments <= 1.54\ngini = 0.7\nsamples = 4\nvalue = [0.0, 0.0, 0.92, 1.05, 1.52, 2.63, 0.0]\nclass = Year 6", fillcolor="#eccff9"] ;
262 -> 268 ;
269 [label="Total_Debris <= 0.0\ngini = 0.47\nsamples = 2\nvalue = [0.0, 0.0, 0.92, 0.0, 1.52, 0.0, 0.0]\nclass = Year 5", fillcolor="#b1bcf5"] ;
268 -> 269 ;
270 [label="gini = 0.0\nsamples = 1\nvalue = [0.0, 0.0, 0.0, 0.0, 1.52, 0.0, 0.0]\nclass = Year 5", fillcolor="#3956e5"] ;
269 -> 270 ;
271 [label="gini = -0.0\nsamples = 1\nvalue = [0.0, 0.0, 0.92, 0.0, 0.0, 0.0, 0.0]\nclass = Year 3", fillcolor="#39e54d"] ;
269 -> 271 ;
272 [label="Foamed_Plastic_Fragments___Flux <= 0.0\ngini = 0.41\nsamples = 2\nvalue = [0.0, 0.0, 0.0, 1.05, 0.0, 2.63, 0.0]\nclass = Year 6", fillcolor="#d088ef"] ;
268 -> 272 ;
273 [label="gini = 0.0\nsamples = 1\nvalue = [0.0, 0.0, 0.0, 1.05, 0.0, 0.0, 0.0]\nclass = Year 4", fillcolor="#39e5e2"] ;
272 -> 273 ;
274 [label="gini = 0.0\nsamples = 1\nvalue = [0.0, 0.0, 0.0, 0.0, 0.0, 2.63, 0.0]\nclass = Year 6", fillcolor="#b139e5"] ;
272 -> 274 ;
275 [label="gini = 0.0\nsamples = 1\nvalue = [0.41, 0.0, 0.0, 0.0, 0.0, 0.0, 0.0]\nclass = Year 1", fillcolor="#e58139"] ;
259 -> 275 ;
276 [label="gini = -0.0\nsamples = 2\nvalue = [0.0, 0.0, 1.84, 0.0, 0.0, 0.0, 0.0]\nclass = Year 3", fillcolor="#39e54d"] ;
258 -> 276 ;
277 [label="Rubber___Flux <= 0.0\ngini = 0.72\nsamples = 12\nvalue = [1.66, 1.38, 2.76, 3.16, 0.0, 0.0, 0.0]\nclass = Year 4", fillcolor="#f2fdfd"] ;
257 -> 277 ;
278 [label="Unclassified___Flux <= 3.88\ngini = 0.7\nsamples = 11\nvalue = [1.66, 0.69, 2.76, 3.16, 0.0, 0.0, 0.0]\nclass = Year 4", fillcolor="#f0fdfd"] ;
277 -> 278 ;
279 [label="Food_Wrappers <= 1.62\ngini = 0.35\nsamples = 4\nvalue = [0.0, 0.0, 0.92, 3.16, 0.0, 0.0, 0.0]\nclass = Year 4", fillcolor="#72edea"] ;
278 -> 279 ;
280 [label="gini = 0.0\nsamples = 3\nvalue = [0.0, 0.0, 0.0, 3.16, 0.0, 0.0, 0.0]\nclass = Year 4", fillcolor="#39e5e2"] ;
279 -> 280 ;
281 [label="gini = 0.0\nsamples = 1\nvalue = [0.0, 0.0, 0.92, 0.0, 0.0, 0.0, 0.0]\nclass = Year 3", fillcolor="#39e54d"] ;
279 -> 281 ;
282 [label="Cigarettes___Flux <= 0.0\ngini = 0.62\nsamples = 7\nvalue = [1.66, 0.69, 1.84, 0.0, 0.0, 0.0, 0.0]\nclass = Year 3", fillcolor="#f1fdf2"] ;
278 -> 282 ;
283 [label="Bottle_Container_Caps <= 0.6\ngini = 0.6\nsamples = 5\nvalue = [0.83, 0.69, 1.84, 0.0, 0.0, 0.0, 0.0]\nclass = Year 3", fillcolor="#b0f5b8"] ;
282 -> 283 ;
284 [label="Total_Debris <= 0.0\ngini = 0.54\nsamples = 4\nvalue = [0.41, 0.69, 1.84, 0.0, 0.0, 0.0, 0.0]\nclass = Year 3", fillcolor="#9af2a4"] ;
283 -> 284 ;
285 [label="Cigarettes <= 0.29\ngini = 0.3\nsamples = 3\nvalue = [0.41, 0.0, 1.84, 0.0, 0.0, 0.0, 0.0]\nclass = Year 3", fillcolor="#66eb75"] ;
284 -> 285 ;
286 [label="gini = 0.0\nsamples = 2\nvalue = [0.0, 0.0, 1.84, 0.0, 0.0, 0.0, 0.0]\nclass = Year 3", fillcolor="#39e54d"] ;
285 -> 286 ;
287 [label="gini = 0.0\nsamples = 1\nvalue = [0.41, 0.0, 0.0, 0.0, 0.0, 0.0, 0.0]\nclass = Year 1", fillcolor="#e58139"] ;
285 -> 287 ;
288 [label="gini = -0.0\nsamples = 1\nvalue = [0.0, 0.69, 0.0, 0.0, 0.0, 0.0, 0.0]\nclass = Year 2", fillcolor="#b7e539"] ;
284 -> 288 ;
289 [label="gini = -0.0\nsamples = 1\nvalue = [0.41, 0.0, 0.0, 0.0, 0.0, 0.0, 0.0]\nclass = Year 1", fillcolor="#e58139"] ;
283 -> 289 ;
290 [label="gini = -0.0\nsamples = 2\nvalue = [0.83, 0.0, 0.0, 0.0, 0.0, 0.0, 0.0]\nclass = Year 1", fillcolor="#e58139"] ;
282 -> 290 ;
291 [label="gini = -0.0\nsamples = 1\nvalue = [0.0, 0.69, 0.0, 0.0, 0.0, 0.0, 0.0]\nclass = Year 2", fillcolor="#b7e539"] ;
277 -> 291 ;
292 [label="Food_Wrappers___Flux <= 0.0\ngini = 0.72\nsamples = 15\nvalue = [1.24, 0.69, 2.76, 5.27, 4.56, 0.0, 0.0]\nclass = Year 4", fillcolor="#f1fdfd"] ;
256 -> 292 ;
293 [label="Plastic_Other___Flux <= 0.0\ngini = 0.72\nsamples = 14\nvalue = [1.24, 0.69, 2.76, 5.27, 3.04, 0.0, 0.0]\nclass = Year 4", fillcolor="#d3f9f9"] ;
292 -> 293 ;
294 [label="Metal <= 0.94\ngini = 0.68\nsamples = 12\nvalue = [1.24, 0.69, 0.92, 5.27, 3.04, 0.0, 0.0]\nclass = Year 4", fillcolor="#c9f8f7"] ;
293 -> 294 ;
295 [label="Plastic_Rope_Net <= 1.86\ngini = 0.64\nsamples = 11\nvalue = [1.24, 0.0, 0.92, 5.27, 3.04, 0.0, 0.0]\nclass = Year 4", fillcolor="#c4f7f6"] ;
294 -> 295 ;
296 [label="Plastic_Beverage_Bottles <= 2.83\ngini = 0.51\nsamples = 9\nvalue = [1.24, 0.0, 0.0, 5.27, 1.52, 0.0, 0.0]\nclass = Year 4", fillcolor="#8df0ee"] ;
295 -> 296 ;
297 [label="Hard_Plastic_Fragments___Flux <= 0.0\ngini = 0.35\nsamples = 7\nvalue = [1.24, 0.0, 0.0, 4.22, 0.0, 0.0, 0.0]\nclass = Year 4", fillcolor="#73edeb"] ;
296 -> 297 ;
298 [label="Fishing_Lures___Line___Flux <= 0.0\ngini = 0.27\nsamples = 6\nvalue = [0.83, 0.0, 0.0, 4.22, 0.0, 0.0, 0.0]\nclass = Year 4", fillcolor="#60eae8"] ;
297 -> 298 ;
299 [label="Hard_Plastic_Fragments <= 5.13\ngini = 0.33\nsamples = 5\nvalue = [0.83, 0.0, 0.0, 3.16, 0.0, 0.0, 0.0]\nclass = Year 4", fillcolor="#6decea"] ;
298 -> 299 ;
300 [label="Hard_Plastic_Fragments___Flux <= 0.0\ngini = 0.4\nsamples = 4\nvalue = [0.83, 0.0, 0.0, 2.11, 0.0, 0.0, 0.0]\nclass = Year 4", fillcolor="#87efed"] ;
299 -> 300 ;
301 [label="Foamed_Plastic_Fragments <= 1.38\ngini = 0.49\nsamples = 3\nvalue = [0.83, 0.0, 0.0, 1.05, 0.0, 0.0, 0.0]\nclass = Year 4", fillcolor="#d5f9f9"] ;
300 -> 301 ;
302 [label="Straws___Flux <= 0.0\ngini = 0.4\nsamples = 2\nvalue = [0.41, 0.0, 0.0, 1.05, 0.0, 0.0, 0.0]\nclass = Year 4", fillcolor="#87efed"] ;
301 -> 302 ;
303 [label="gini = 0.0\nsamples = 1\nvalue = [0.41, 0.0, 0.0, 0.0, 0.0, 0.0, 0.0]\nclass = Year 1", fillcolor="#e58139"] ;
302 -> 303 ;
304 [label="gini = 0.0\nsamples = 1\nvalue = [0.0, 0.0, 0.0, 1.05, 0.0, 0.0, 0.0]\nclass = Year 4", fillcolor="#39e5e2"] ;
302 -> 304 ;
305 [label="gini = 0.0\nsamples = 1\nvalue = [0.41, 0.0, 0.0, 0.0, 0.0, 0.0, 0.0]\nclass = Year 1", fillcolor="#e58139"] ;
301 -> 305 ;
306 [label="gini = 0.0\nsamples = 1\nvalue = [0.0, 0.0, 0.0, 1.05, 0.0, 0.0, 0.0]\nclass = Year 4", fillcolor="#39e5e2"] ;
300 -> 306 ;
307 [label="gini = 0.0\nsamples = 1\nvalue = [0.0, 0.0, 0.0, 1.05, 0.0, 0.0, 0.0]\nclass = Year 4", fillcolor="#39e5e2"] ;
299 -> 307 ;
308 [label="gini = 0.0\nsamples = 1\nvalue = [0.0, 0.0, 0.0, 1.05, 0.0, 0.0, 0.0]\nclass = Year 4", fillcolor="#39e5e2"] ;
298 -> 308 ;
309 [label="gini = 0.0\nsamples = 1\nvalue = [0.41, 0.0, 0.0, 0.0, 0.0, 0.0, 0.0]\nclass = Year 1", fillcolor="#e58139"] ;
297 -> 309 ;
310 [label="Towels_Rags <= 0.03\ngini = 0.48\nsamples = 2\nvalue = [0.0, 0.0, 0.0, 1.05, 1.52, 0.0, 0.0]\nclass = Year 5", fillcolor="#c2cbf7"] ;
296 -> 310 ;
311 [label="gini = 0.0\nsamples = 1\nvalue = [0.0, 0.0, 0.0, 1.05, 0.0, 0.0, 0.0]\nclass = Year 4", fillcolor="#39e5e2"] ;
310 -> 311 ;
312 [label="gini = 0.0\nsamples = 1\nvalue = [0.0, 0.0, 0.0, 0.0, 1.52, 0.0, 0.0]\nclass = Year 5", fillcolor="#3956e5"] ;
310 -> 312 ;
313 [label="Total_Debris <= 4.52\ngini = 0.47\nsamples = 2\nvalue = [0.0, 0.0, 0.92, 0.0, 1.52, 0.0, 0.0]\nclass = Year 5", fillcolor="#b1bcf5"] ;
295 -> 313 ;
314 [label="gini = 0.0\nsamples = 1\nvalue = [0.0, 0.0, 0.92, 0.0, 0.0, 0.0, 0.0]\nclass = Year 3", fillcolor="#39e54d"] ;
313 -> 314 ;
315 [label="gini = -0.0\nsamples = 1\nvalue = [0.0, 0.0, 0.0, 0.0, 1.52, 0.0, 0.0]\nclass = Year 5", fillcolor="#3956e5"] ;
313 -> 315 ;
316 [label="gini = -0.0\nsamples = 1\nvalue = [0.0, 0.69, 0.0, 0.0, 0.0, 0.0, 0.0]\nclass = Year 2", fillcolor="#b7e539"] ;
294 -> 316 ;
317 [label="gini = -0.0\nsamples = 2\nvalue = [0.0, 0.0, 1.84, 0.0, 0.0, 0.0, 0.0]\nclass = Year 3", fillcolor="#39e54d"] ;
293 -> 317 ;
318 [label="gini = 0.0\nsamples = 1\nvalue = [0.0, 0.0, 0.0, 0.0, 1.52, 0.0, 0.0]\nclass = Year 5", fillcolor="#3956e5"] ;
292 -> 318 ;
319 [label="gini = -0.0\nsamples = 1\nvalue = [0.0, 0.0, 0.0, 0.0, 1.52, 0.0, 0.0]\nclass = Year 5", fillcolor="#3956e5"] ;
255 -> 319 ;
320 [label="gini = 0.0\nsamples = 2\nvalue = [0.0, 0.0, 0.0, 2.11, 0.0, 0.0, 0.0]\nclass = Year 4", fillcolor="#39e5e2"] ;
254 -> 320 ;
321 [label="Bottle_Container_Caps <= 1.07\ngini = 0.23\nsamples = 4\nvalue = [0.0, 0.69, 0.0, 0.0, 4.56, 0.0, 0.0]\nclass = Year 5", fillcolor="#5770e9"] ;
253 -> 321 ;
322 [label="Balloons_Mylar <= 0.94\ngini = 0.3\nsamples = 3\nvalue = [0.0, 0.69, 0.0, 0.0, 3.04, 0.0, 0.0]\nclass = Year 5", fillcolor="#667ceb"] ;
321 -> 322 ;
323 [label="gini = 0.0\nsamples = 2\nvalue = [0.0, 0.0, 0.0, 0.0, 3.04, 0.0, 0.0]\nclass = Year 5", fillcolor="#3956e5"] ;
322 -> 323 ;
324 [label="gini = -0.0\nsamples = 1\nvalue = [0.0, 0.69, 0.0, 0.0, 0.0, 0.0, 0.0]\nclass = Year 2", fillcolor="#b7e539"] ;
322 -> 324 ;
325 [label="gini = 0.0\nsamples = 1\nvalue = [0.0, 0.0, 0.0, 0.0, 1.52, 0.0, 0.0]\nclass = Year 5", fillcolor="#3956e5"] ;
321 -> 325 ;
326 [label="gini = -0.0\nsamples = 1\nvalue = [0.0, 0.0, 0.0, 0.0, 1.52, 0.0, 0.0]\nclass = Year 5", fillcolor="#3956e5"] ;
252 -> 326 ;
327 [label="Cloth_Fabric <= 0.23\ngini = 0.43\nsamples = 5\nvalue = [0.0, 0.0, 0.0, 2.11, 4.56, 0.0, 0.0]\nclass = Year 5", fillcolor="#95a4f1"] ;
251 -> 327 ;
328 [label="Foamed_Plastic_Fragments___Flux <= 0.0\ngini = 0.48\nsamples = 4\nvalue = [0.0, 0.0, 0.0, 2.11, 3.04, 0.0, 0.0]\nclass = Year 5", fillcolor="#c2cbf7"] ;
327 -> 328 ;
329 [label="gini = 0.0\nsamples = 1\nvalue = [0.0, 0.0, 0.0, 1.05, 0.0, 0.0, 0.0]\nclass = Year 4", fillcolor="#39e5e2"] ;
328 -> 329 ;
330 [label="Balloons_Mylar___Flux <= 0.0\ngini = 0.38\nsamples = 3\nvalue = [0.0, 0.0, 0.0, 1.05, 3.04, 0.0, 0.0]\nclass = Year 5", fillcolor="#7e91ee"] ;
328 -> 330 ;
331 [label="Food_Wrappers___Flux <= 0.0\ngini = 0.48\nsamples = 2\nvalue = [0.0, 0.0, 0.0, 1.05, 1.52, 0.0, 0.0]\nclass = Year 5", fillcolor="#c2cbf7"] ;
330 -> 331 ;
332 [label="gini = 0.0\nsamples = 1\nvalue = [0.0, 0.0, 0.0, 1.05, 0.0, 0.0, 0.0]\nclass = Year 4", fillcolor="#39e5e2"] ;
331 -> 332 ;
333 [label="gini = 0.0\nsamples = 1\nvalue = [0.0, 0.0, 0.0, 0.0, 1.52, 0.0, 0.0]\nclass = Year 5", fillcolor="#3956e5"] ;
331 -> 333 ;
334 [label="gini = 0.0\nsamples = 1\nvalue = [0.0, 0.0, 0.0, 0.0, 1.52, 0.0, 0.0]\nclass = Year 5", fillcolor="#3956e5"] ;
330 -> 334 ;
335 [label="gini = 0.0\nsamples = 1\nvalue = [0.0, 0.0, 0.0, 0.0, 1.52, 0.0, 0.0]\nclass = Year 5", fillcolor="#3956e5"] ;
327 -> 335 ;
336 [label="gini = 0.0\nsamples = 1\nvalue = [0.0, 0.0, 0.0, 0.0, 0.0, 2.63, 0.0]\nclass = Year 6", fillcolor="#b139e5"] ;
250 -> 336 ;
337 [label="gini = 0.0\nsamples = 4\nvalue = [0.0, 0.0, 0.0, 4.22, 0.0, 0.0, 0.0]\nclass = Year 4", fillcolor="#39e5e2"] ;
249 -> 337 ;
338 [label="Plastic_Rope_Net___Flux <= 0.0\ngini = 0.8\nsamples = 65\nvalue = [6.63, 11.76, 15.62, 9.49, 3.04, 10.51, 0.0]\nclass = Year 3", fillcolor="#eefdf0"] ;
248 -> 338 ;
339 [label="Balloons_Mylar___Flux <= 0.0\ngini = 0.81\nsamples = 59\nvalue = [5.39, 11.07, 13.78, 9.49, 3.04, 10.51, 0.0]\nclass = Year 3", fillcolor="#f2fdf4"] ;
338 -> 339 ;
340 [label="Cigarettes___Flux <= 0.0\ngini = 0.8\nsamples = 55\nvalue = [4.97, 8.99, 13.78, 9.49, 3.04, 10.51, 0.0]\nclass = Year 3", fillcolor="#effdf1"] ;
339 -> 340 ;
341 [label="Foamed_Plastic_Fragments <= 3.8\ngini = 0.79\nsamples = 53\nvalue = [4.97, 8.3, 13.78, 9.49, 1.52, 10.51, 0.0]\nclass = Year 3", fillcolor="#eefdf0"] ;
340 -> 341 ;
342 [label="Cardboard_Cartons <= 0.0\ngini = 0.78\nsamples = 46\nvalue = [4.56, 7.61, 11.03, 8.44, 0.0, 10.51, 0.0]\nclass = Year 3", fillcolor="#fcfffc"] ;
341 -> 342 ;
343 [label="Rubber_Fragments <= 0.0\ngini = 0.78\nsamples = 45\nvalue = [4.56, 7.61, 11.03, 7.38, 0.0, 10.51, 0.0]\nclass = Year 3", fillcolor="#fcfffc"] ;
342 -> 343 ;
344 [label="Cups <= 0.57\ngini = 0.78\nsamples = 42\nvalue = [4.14, 6.92, 11.03, 7.38, 0.0, 7.88, 0.0]\nclass = Year 3", fillcolor="#eafcec"] ;
343 -> 344 ;
345 [label="Bags <= 1.72\ngini = 0.79\nsamples = 39\nvalue = [3.73, 6.92, 9.19, 7.38, 0.0, 7.88, 0.0]\nclass = Year 3", fillcolor="#f6fef6"] ;
344 -> 345 ;
346 [label="Plastic_Beverage_Bottles <= 2.95\ngini = 0.78\nsamples = 35\nvalue = [2.9, 6.92, 8.27, 7.38, 0.0, 5.26, 0.0]\nclass = Year 3", fillcolor="#f7fef8"] ;
345 -> 346 ;
347 [label="Foamed_Plastic_Fragments <= 1.04\ngini = 0.78\nsamples = 34\nvalue = [2.9, 6.92, 8.27, 6.33, 0.0, 5.26, 0.0]\nclass = Year 3", fillcolor="#f3fdf4"] ;
346 -> 347 ;
348 [label="Plastic_Other <= 0.47\ngini = 0.72\nsamples = 14\nvalue = [1.24, 2.08, 4.59, 1.05, 0.0, 5.26, 0.0]\nclass = Year 6", fillcolor="#faf1fd"] ;
347 -> 348 ;
349 [label="Hard_Plastic_Fragments <= 8.74\ngini = 0.66\nsamples = 9\nvalue = [1.24, 0.69, 1.84, 1.05, 0.0, 5.26, 0.0]\nclass = Year 6", fillcolor="#dfadf4"] ;
348 -> 349 ;
350 [label="Bags___Flux <= 0.0\ngini = 0.6\nsamples = 7\nvalue = [0.83, 0.69, 0.92, 1.05, 0.0, 5.26, 0.0]\nclass = Year 6", fillcolor="#d493f1"] ;
349 -> 350 ;
351 [label="Bottle_Container_Caps <= 0.71\ngini = 0.5\nsamples = 6\nvalue = [0.83, 0.69, 0.92, 0.0, 0.0, 5.26, 0.0]\nclass = Year 6", fillcolor="#cd80ee"] ;
350 -> 351 ;
352 [label="gini = 0.0\nsamples = 2\nvalue = [0.83, 0.0, 0.0, 0.0, 0.0, 0.0, 0.0]\nclass = Year 1", fillcolor="#e58139"] ;
351 -> 352 ;
353 [label="Rubber_Other <= 0.0\ngini = 0.39\nsamples = 4\nvalue = [0.0, 0.69, 0.92, 0.0, 0.0, 5.26, 0.0]\nclass = Year 6", fillcolor="#c66fec"] ;
351 -> 353 ;
354 [label="Plastic_Beverage_Bottles <= 0.01\ngini = 0.21\nsamples = 3\nvalue = [0.0, 0.69, 0.0, 0.0, 0.0, 5.26, 0.0]\nclass = Year 6", fillcolor="#bb53e8"] ;
353 -> 354 ;
355 [label="Balloons_Mylar <= 0.89\ngini = 0.33\nsamples = 2\nvalue = [0.0, 0.69, 0.0, 0.0, 0.0, 2.63, 0.0]\nclass = Year 6", fillcolor="#c66dec"] ;
354 -> 355 ;
356 [label="gini = 0.0\nsamples = 1\nvalue = [0.0, 0.0, 0.0, 0.0, 0.0, 2.63, 0.0]\nclass = Year 6", fillcolor="#b139e5"] ;
355 -> 356 ;
357 [label="gini = -0.0\nsamples = 1\nvalue = [0.0, 0.69, 0.0, 0.0, 0.0, 0.0, 0.0]\nclass = Year 2", fillcolor="#b7e539"] ;
355 -> 357 ;
358 [label="gini = 0.0\nsamples = 1\nvalue = [0.0, 0.0, 0.0, 0.0, 0.0, 2.63, 0.0]\nclass = Year 6", fillcolor="#b139e5"] ;
354 -> 358 ;
359 [label="gini = 0.0\nsamples = 1\nvalue = [0.0, 0.0, 0.92, 0.0, 0.0, 0.0, 0.0]\nclass = Year 3", fillcolor="#39e54d"] ;
353 -> 359 ;
360 [label="gini = 0.0\nsamples = 1\nvalue = [0.0, 0.0, 0.0, 1.05, 0.0, 0.0, 0.0]\nclass = Year 4", fillcolor="#39e5e2"] ;
350 -> 360 ;
361 [label="Processed_Lumber_Other <= 0.0\ngini = 0.43\nsamples = 2\nvalue = [0.41, 0.0, 0.92, 0.0, 0.0, 0.0, 0.0]\nclass = Year 3", fillcolor="#92f19d"] ;
349 -> 361 ;
362 [label="gini = 0.0\nsamples = 1\nvalue = [0.0, 0.0, 0.92, 0.0, 0.0, 0.0, 0.0]\nclass = Year 3", fillcolor="#39e54d"] ;
361 -> 362 ;
363 [label="gini = -0.0\nsamples = 1\nvalue = [0.41, 0.0, 0.0, 0.0, 0.0, 0.0, 0.0]\nclass = Year 1", fillcolor="#e58139"] ;
361 -> 363 ;
364 [label="Paper_Bags___Flux <= 0.96\ngini = 0.45\nsamples = 5\nvalue = [0.0, 1.38, 2.76, 0.0, 0.0, 0.0, 0.0]\nclass = Year 3", fillcolor="#9cf2a6"] ;
348 -> 364 ;
365 [label="Unclassified___Flux <= 14.85\ngini = 0.0\nsamples = 3\nvalue = [0.0, 0.0, 2.76, 0.0, 0.0, 0.0, 0.0]\nclass = Year 3", fillcolor="#39e54d"] ;
364 -> 365 ;
366 [label="gini = 0.0\nsamples = 1\nvalue = [0.0, 0.0, 0.92, 0.0, 0.0, 0.0, 0.0]\nclass = Year 3", fillcolor="#39e54d"] ;
365 -> 366 ;
367 [label="gini = 0.0\nsamples = 2\nvalue = [0.0, 0.0, 1.84, 0.0, 0.0, 0.0, 0.0]\nclass = Year 3", fillcolor="#39e54d"] ;
365 -> 367 ;
368 [label="gini = -0.0\nsamples = 2\nvalue = [0.0, 1.38, 0.0, 0.0, 0.0, 0.0, 0.0]\nclass = Year 2", fillcolor="#b7e539"] ;
364 -> 368 ;
369 [label="Cigarettes <= 0.93\ngini = 0.72\nsamples = 20\nvalue = [1.66, 4.84, 3.68, 5.27, 0.0, 0.0, 0.0]\nclass = Year 4", fillcolor="#f7fefe"] ;
347 -> 369 ;
370 [label="Filmed_Plastic_Fragments <= 2.9\ngini = 0.69\nsamples = 17\nvalue = [0.83, 4.15, 3.68, 5.27, 0.0, 0.0, 0.0]\nclass = Year 4", fillcolor="#e8fcfc"] ;
369 -> 370 ;
371 [label="Unclassified___Flux <= 19.34\ngini = 0.69\nsamples = 13\nvalue = [0.83, 4.15, 1.84, 3.16, 0.0, 0.0, 0.0]\nclass = Year 2", fillcolor="#f5fbe2"] ;
370 -> 371 ;
372 [label="Lumber_Building_Material <= 0.0\ngini = 0.66\nsamples = 11\nvalue = [0.83, 3.46, 0.92, 3.16, 0.0, 0.0, 0.0]\nclass = Year 2", fillcolor="#fbfef4"] ;
371 -> 372 ;
373 [label="Filmed_Plastic_Fragments___Flux <= 0.0\ngini = 0.59\nsamples = 10\nvalue = [0.83, 3.46, 0.0, 3.16, 0.0, 0.0, 0.0]\nclass = Year 2", fillcolor="#fafdf1"] ;
372 -> 373 ;
374 [label="Plastic_Rope_Net <= 1.29\ngini = 0.55\nsamples = 9\nvalue = [0.41, 3.46, 0.0, 3.16, 0.0, 0.0, 0.0]\nclass = Year 2", fillcolor="#fafdf0"] ;
373 -> 374 ;
375 [label="Rubber_Other___Flux <= 0.24\ngini = 0.45\nsamples = 7\nvalue = [0.41, 3.46, 0.0, 1.05, 0.0, 0.0, 0.0]\nclass = Year 2", fillcolor="#d2ef84"] ;
374 -> 375 ;
376 [label="Total_Debris <= 0.0\ngini = 0.19\nsamples = 6\nvalue = [0.41, 3.46, 0.0, 0.0, 0.0, 0.0, 0.0]\nclass = Year 2", fillcolor="#c0e851"] ;
375 -> 376 ;
377 [label="gini = 0.0\nsamples = 3\nvalue = [0.0, 2.08, 0.0, 0.0, 0.0, 0.0, 0.0]\nclass = Year 2", fillcolor="#b7e539"] ;
376 -> 377 ;
378 [label="Bottle_Container_Caps___Flux <= 0.0\ngini = 0.35\nsamples = 3\nvalue = [0.41, 1.38, 0.0, 0.0, 0.0, 0.0, 0.0]\nclass = Year 2", fillcolor="#cded74"] ;
376 -> 378 ;
379 [label="gini = 0.0\nsamples = 1\nvalue = [0.41, 0.0, 0.0, 0.0, 0.0, 0.0, 0.0]\nclass = Year 1", fillcolor="#e58139"] ;
378 -> 379 ;
380 [label="gini = 0.0\nsamples = 2\nvalue = [0.0, 1.38, 0.0, 0.0, 0.0, 0.0, 0.0]\nclass = Year 2", fillcolor="#b7e539"] ;
378 -> 380 ;
381 [label="gini = 0.0\nsamples = 1\nvalue = [0.0, 0.0, 0.0, 1.05, 0.0, 0.0, 0.0]\nclass = Year 4", fillcolor="#39e5e2"] ;
375 -> 381 ;
382 [label="gini = 0.0\nsamples = 2\nvalue = [0.0, 0.0, 0.0, 2.11, 0.0, 0.0, 0.0]\nclass = Year 4", fillcolor="#39e5e2"] ;
374 -> 382 ;
383 [label="gini = 0.0\nsamples = 1\nvalue = [0.41, 0.0, 0.0, 0.0, 0.0, 0.0, 0.0]\nclass = Year 1", fillcolor="#e58139"] ;
373 -> 383 ;
384 [label="gini = 0.0\nsamples = 1\nvalue = [0.0, 0.0, 0.92, 0.0, 0.0, 0.0, 0.0]\nclass = Year 3", fillcolor="#39e54d"] ;
372 -> 384 ;
385 [label="Plastic_Rope_Net <= 3.82\ngini = 0.49\nsamples = 2\nvalue = [0.0, 0.69, 0.92, 0.0, 0.0, 0.0, 0.0]\nclass = Year 3", fillcolor="#cef9d3"] ;
371 -> 385 ;
386 [label="gini = 0.0\nsamples = 1\nvalue = [0.0, 0.69, 0.0, 0.0, 0.0, 0.0, 0.0]\nclass = Year 2", fillcolor="#b7e539"] ;
385 -> 386 ;
387 [label="gini = 0.0\nsamples = 1\nvalue = [0.0, 0.0, 0.92, 0.0, 0.0, 0.0, 0.0]\nclass = Year 3", fillcolor="#39e54d"] ;
385 -> 387 ;
388 [label="Bags___Flux <= 0.0\ngini = 0.5\nsamples = 4\nvalue = [0.0, 0.0, 1.84, 2.11, 0.0, 0.0, 0.0]\nclass = Year 4", fillcolor="#e5fcfb"] ;
370 -> 388 ;
389 [label="Hard_Plastic_Fragments <= 2.91\ngini = 0.46\nsamples = 3\nvalue = [0.0, 0.0, 1.84, 1.05, 0.0, 0.0, 0.0]\nclass = Year 3", fillcolor="#abf4b3"] ;
388 -> 389 ;
390 [label="gini = 0.0\nsamples = 1\nvalue = [0.0, 0.0, 0.0, 1.05, 0.0, 0.0, 0.0]\nclass = Year 4", fillcolor="#39e5e2"] ;
389 -> 390 ;
391 [label="Bottle_Container_Caps___Flux <= 0.0\ngini = 0.0\nsamples = 2\nvalue = [0.0, 0.0, 1.84, 0.0, 0.0, 0.0, 0.0]\nclass = Year 3", fillcolor="#39e54d"] ;
389 -> 391 ;
392 [label="gini = 0.0\nsamples = 1\nvalue = [0.0, 0.0, 0.92, 0.0, 0.0, 0.0, 0.0]\nclass = Year 3", fillcolor="#39e54d"] ;
391 -> 392 ;
393 [label="gini = 0.0\nsamples = 1\nvalue = [0.0, 0.0, 0.92, 0.0, 0.0, 0.0, 0.0]\nclass = Year 3", fillcolor="#39e54d"] ;
391 -> 393 ;
394 [label="gini = 0.0\nsamples = 1\nvalue = [0.0, 0.0, 0.0, 1.05, 0.0, 0.0, 0.0]\nclass = Year 4", fillcolor="#39e5e2"] ;
388 -> 394 ;
395 [label="Hard_Plastic_Fragments <= 4.8\ngini = 0.5\nsamples = 3\nvalue = [0.83, 0.69, 0.0, 0.0, 0.0, 0.0, 0.0]\nclass = Year 1", fillcolor="#fbeade"] ;
369 -> 395 ;
396 [label="gini = 0.0\nsamples = 1\nvalue = [0.0, 0.69, 0.0, 0.0, 0.0, 0.0, 0.0]\nclass = Year 2", fillcolor="#b7e539"] ;
395 -> 396 ;
397 [label="gini = 0.0\nsamples = 2\nvalue = [0.83, 0.0, 0.0, 0.0, 0.0, 0.0, 0.0]\nclass = Year 1", fillcolor="#e58139"] ;
395 -> 397 ;
398 [label="gini = 0.0\nsamples = 1\nvalue = [0.0, 0.0, 0.0, 1.05, 0.0, 0.0, 0.0]\nclass = Year 4", fillcolor="#39e5e2"] ;
346 -> 398 ;
399 [label="Cardboard_Cartons___Flux <= 0.37\ngini = 0.56\nsamples = 4\nvalue = [0.83, 0.0, 0.92, 0.0, 0.0, 2.63, 0.0]\nclass = Year 6", fillcolor="#d89df2"] ;
345 -> 399 ;
400 [label="Plastic_Rope_Net <= 1.55\ngini = 0.5\nsamples = 3\nvalue = [0.83, 0.0, 0.92, 0.0, 0.0, 0.0, 0.0]\nclass = Year 3", fillcolor="#ecfcee"] ;
399 -> 400 ;
401 [label="gini = 0.0\nsamples = 1\nvalue = [0.41, 0.0, 0.0, 0.0, 0.0, 0.0, 0.0]\nclass = Year 1", fillcolor="#e58139"] ;
400 -> 401 ;
402 [label="Bags <= 2.47\ngini = 0.43\nsamples = 2\nvalue = [0.41, 0.0, 0.92, 0.0, 0.0, 0.0, 0.0]\nclass = Year 3", fillcolor="#92f19d"] ;
400 -> 402 ;
403 [label="gini = 0.0\nsamples = 1\nvalue = [0.0, 0.0, 0.92, 0.0, 0.0, 0.0, 0.0]\nclass = Year 3", fillcolor="#39e54d"] ;
402 -> 403 ;
404 [label="gini = -0.0\nsamples = 1\nvalue = [0.41, 0.0, 0.0, 0.0, 0.0, 0.0, 0.0]\nclass = Year 1", fillcolor="#e58139"] ;
402 -> 404 ;
405 [label="gini = 0.0\nsamples = 1\nvalue = [0.0, 0.0, 0.0, 0.0, 0.0, 2.63, 0.0]\nclass = Year 6", fillcolor="#b139e5"] ;
399 -> 405 ;
406 [label="Hard_Plastic_Fragments <= 13.79\ngini = 0.3\nsamples = 3\nvalue = [0.41, 0.0, 1.84, 0.0, 0.0, 0.0, 0.0]\nclass = Year 3", fillcolor="#66eb75"] ;
344 -> 406 ;
407 [label="Bags___Flux <= 0.0\ngini = 0.43\nsamples = 2\nvalue = [0.41, 0.0, 0.92, 0.0, 0.0, 0.0, 0.0]\nclass = Year 3", fillcolor="#92f19d"] ;
406 -> 407 ;
408 [label="gini = 0.0\nsamples = 1\nvalue = [0.41, 0.0, 0.0, 0.0, 0.0, 0.0, 0.0]\nclass = Year 1", fillcolor="#e58139"] ;
407 -> 408 ;
409 [label="gini = -0.0\nsamples = 1\nvalue = [0.0, 0.0, 0.92, 0.0, 0.0, 0.0, 0.0]\nclass = Year 3", fillcolor="#39e54d"] ;
407 -> 409 ;
410 [label="gini = 0.0\nsamples = 1\nvalue = [0.0, 0.0, 0.92, 0.0, 0.0, 0.0, 0.0]\nclass = Year 3", fillcolor="#39e54d"] ;
406 -> 410 ;
411 [label="Metal <= 1.77\ngini = 0.46\nsamples = 3\nvalue = [0.41, 0.69, 0.0, 0.0, 0.0, 2.63, 0.0]\nclass = Year 6", fillcolor="#cd81ee"] ;
343 -> 411 ;
412 [label="Bottle_Container_Caps___Flux <= 0.0\ngini = 0.47\nsamples = 2\nvalue = [0.41, 0.69, 0.0, 0.0, 0.0, 0.0, 0.0]\nclass = Year 2", fillcolor="#e2f5b0"] ;
411 -> 412 ;
413 [label="gini = 0.0\nsamples = 1\nvalue = [0.41, 0.0, 0.0, 0.0, 0.0, 0.0, 0.0]\nclass = Year 1", fillcolor="#e58139"] ;
412 -> 413 ;
414 [label="gini = -0.0\nsamples = 1\nvalue = [0.0, 0.69, 0.0, 0.0, 0.0, 0.0, 0.0]\nclass = Year 2", fillcolor="#b7e539"] ;
412 -> 414 ;
415 [label="gini = 0.0\nsamples = 1\nvalue = [0.0, 0.0, 0.0, 0.0, 0.0, 2.63, 0.0]\nclass = Year 6", fillcolor="#b139e5"] ;
411 -> 415 ;
416 [label="gini = 0.0\nsamples = 1\nvalue = [0.0, 0.0, 0.0, 1.05, 0.0, 0.0, 0.0]\nclass = Year 4", fillcolor="#39e5e2"] ;
342 -> 416 ;
417 [label="Paper_Bags___Flux <= 0.28\ngini = 0.72\nsamples = 7\nvalue = [0.41, 0.69, 2.76, 1.05, 1.52, 0.0, 0.0]\nclass = Year 3", fillcolor="#cdf8d2"] ;
341 -> 417 ;
418 [label="Metal <= 1.18\ngini = 0.61\nsamples = 6\nvalue = [0.41, 0.69, 2.76, 1.05, 0.0, 0.0, 0.0]\nclass = Year 3", fillcolor="#a8f4b1"] ;
417 -> 418 ;
419 [label="Plastic_Rope_Net___Flux <= 0.0\ngini = 0.45\nsamples = 5\nvalue = [0.41, 0.69, 2.76, 0.0, 0.0, 0.0, 0.0]\nclass = Year 3", fillcolor="#7eee8b"] ;
418 -> 419 ;
420 [label="Plastic_Beverage_Bottles <= 1.61\ngini = 0.23\nsamples = 4\nvalue = [0.41, 0.0, 2.76, 0.0, 0.0, 0.0, 0.0]\nclass = Year 3", fillcolor="#57e968"] ;
419 -> 420 ;
421 [label="gini = 0.0\nsamples = 3\nvalue = [0.0, 0.0, 2.76, 0.0, 0.0, 0.0, 0.0]\nclass = Year 3", fillcolor="#39e54d"] ;
420 -> 421 ;
422 [label="gini = -0.0\nsamples = 1\nvalue = [0.41, 0.0, 0.0, 0.0, 0.0, 0.0, 0.0]\nclass = Year 1", fillcolor="#e58139"] ;
420 -> 422 ;
423 [label="gini = -0.0\nsamples = 1\nvalue = [0.0, 0.69, 0.0, 0.0, 0.0, 0.0, 0.0]\nclass = Year 2", fillcolor="#b7e539"] ;
419 -> 423 ;
424 [label="gini = 0.0\nsamples = 1\nvalue = [0.0, 0.0, 0.0, 1.05, 0.0, 0.0, 0.0]\nclass = Year 4", fillcolor="#39e5e2"] ;
418 -> 424 ;
425 [label="gini = 0.0\nsamples = 1\nvalue = [0.0, 0.0, 0.0, 0.0, 1.52, 0.0, 0.0]\nclass = Year 5", fillcolor="#3956e5"] ;
417 -> 425 ;
426 [label="Hard_Plastic_Fragments <= 8.11\ngini = 0.43\nsamples = 2\nvalue = [0.0, 0.69, 0.0, 0.0, 1.52, 0.0, 0.0]\nclass = Year 5", fillcolor="#93a3f1"] ;
340 -> 426 ;
427 [label="gini = 0.0\nsamples = 1\nvalue = [0.0, 0.0, 0.0, 0.0, 1.52, 0.0, 0.0]\nclass = Year 5", fillcolor="#3956e5"] ;
426 -> 427 ;
428 [label="gini = 0.0\nsamples = 1\nvalue = [0.0, 0.69, 0.0, 0.0, 0.0, 0.0, 0.0]\nclass = Year 2", fillcolor="#b7e539"] ;
426 -> 428 ;
429 [label="Filmed_Plastic_Fragments <= 1.8\ngini = 0.28\nsamples = 4\nvalue = [0.41, 2.08, 0.0, 0.0, 0.0, 0.0, 0.0]\nclass = Year 2", fillcolor="#c5ea61"] ;
339 -> 429 ;
430 [label="Plastic___Flux <= 0.0\ngini = 0.47\nsamples = 2\nvalue = [0.41, 0.69, 0.0, 0.0, 0.0, 0.0, 0.0]\nclass = Year 2", fillcolor="#e2f5b0"] ;
429 -> 430 ;
431 [label="gini = 0.0\nsamples = 1\nvalue = [0.41, 0.0, 0.0, 0.0, 0.0, 0.0, 0.0]\nclass = Year 1", fillcolor="#e58139"] ;
430 -> 431 ;
432 [label="gini = -0.0\nsamples = 1\nvalue = [0.0, 0.69, 0.0, 0.0, 0.0, 0.0, 0.0]\nclass = Year 2", fillcolor="#b7e539"] ;
430 -> 432 ;
433 [label="gini = -0.0\nsamples = 2\nvalue = [0.0, 1.38, 0.0, 0.0, 0.0, 0.0, 0.0]\nclass = Year 2", fillcolor="#b7e539"] ;
429 -> 433 ;
434 [label="Filmed_Plastic_Fragments___Flux <= 0.0\ngini = 0.62\nsamples = 6\nvalue = [1.24, 0.69, 1.84, 0.0, 0.0, 0.0, 0.0]\nclass = Year 3", fillcolor="#d0f9d5"] ;
338 -> 434 ;
435 [label="Plastic <= 20.19\ngini = 0.43\nsamples = 4\nvalue = [0.83, 0.0, 1.84, 0.0, 0.0, 0.0, 0.0]\nclass = Year 3", fillcolor="#92f19d"] ;
434 -> 435 ;
436 [label="gini = 0.0\nsamples = 2\nvalue = [0.0, 0.0, 1.84, 0.0, 0.0, 0.0, 0.0]\nclass = Year 3", fillcolor="#39e54d"] ;
435 -> 436 ;
437 [label="gini = -0.0\nsamples = 2\nvalue = [0.83, 0.0, 0.0, 0.0, 0.0, 0.0, 0.0]\nclass = Year 1", fillcolor="#e58139"] ;
435 -> 437 ;
438 [label="Aluminum_Tin_Cans___Flux <= 0.0\ngini = 0.47\nsamples = 2\nvalue = [0.41, 0.69, 0.0, 0.0, 0.0, 0.0, 0.0]\nclass = Year 2", fillcolor="#e2f5b0"] ;
434 -> 438 ;
439 [label="gini = 0.0\nsamples = 1\nvalue = [0.41, 0.0, 0.0, 0.0, 0.0, 0.0, 0.0]\nclass = Year 1", fillcolor="#e58139"] ;
438 -> 439 ;
440 [label="gini = -0.0\nsamples = 1\nvalue = [0.0, 0.69, 0.0, 0.0, 0.0, 0.0, 0.0]\nclass = Year 2", fillcolor="#b7e539"] ;
438 -> 440 ;
441 [label="Hard_Plastic_Fragments <= 14.85\ngini = 0.77\nsamples = 27\nvalue = [5.39, 2.08, 3.68, 2.11, 3.04, 5.26, 14.98]\nclass = Year 7", fillcolor="#f7c2da"] ;
29 -> 441 ;
442 [label="Aluminum_Tin_Cans <= 0.91\ngini = 0.73\nsamples = 24\nvalue = [4.97, 2.08, 3.68, 2.11, 0.0, 5.26, 14.98]\nclass = Year 7", fillcolor="#f6bad5"] ;
441 -> 442 ;
443 [label="Total_Debris <= 30.43\ngini = 0.75\nsamples = 18\nvalue = [4.14, 1.38, 1.84, 2.11, 0.0, 5.26, 0.0]\nclass = Year 6", fillcolor="#f7eafc"] ;
442 -> 443 ;
444 [label="Cups___Flux <= 0.0\ngini = 0.73\nsamples = 17\nvalue = [4.14, 1.38, 1.84, 1.05, 0.0, 5.26, 0.0]\nclass = Year 6", fillcolor="#f6e8fc"] ;
443 -> 444 ;
445 [label="Foamed_Plastic_Fragments <= 4.33\ngini = 0.69\nsamples = 15\nvalue = [3.73, 1.38, 1.84, 0.0, 0.0, 5.26, 0.0]\nclass = Year 6", fillcolor="#f1dbfa"] ;
444 -> 445 ;
446 [label="Lumber_Building_Material <= 0.0\ngini = 0.72\nsamples = 14\nvalue = [3.73, 1.38, 1.84, 0.0, 0.0, 2.63, 0.0]\nclass = Year 1", fillcolor="#fbebe0"] ;
445 -> 446 ;
447 [label="Filmed_Plastic_Fragments <= 0.31\ngini = 0.69\nsamples = 13\nvalue = [3.73, 0.69, 1.84, 0.0, 0.0, 2.63, 0.0]\nclass = Year 1", fillcolor="#fae9dc"] ;
446 -> 447 ;
448 [label="Processed_Lumber <= 0.0\ngini = 0.67\nsamples = 6\nvalue = [1.24, 0.69, 0.92, 0.0, 0.0, 2.63, 0.0]\nclass = Year 6", fillcolor="#e6bef7"] ;
447 -> 448 ;
449 [label="Hard_Plastic_Fragments <= 3.54\ngini = 0.66\nsamples = 4\nvalue = [0.83, 0.69, 0.92, 0.0, 0.0, 0.0, 0.0]\nclass = Year 3", fillcolor="#f4fef5"] ;
448 -> 449 ;
450 [label="Total_Debris <= 0.0\ngini = 0.49\nsamples = 2\nvalue = [0.0, 0.69, 0.92, 0.0, 0.0, 0.0, 0.0]\nclass = Year 3", fillcolor="#cef9d3"] ;
449 -> 450 ;
451 [label="gini = 0.0\nsamples = 1\nvalue = [0.0, 0.0, 0.92, 0.0, 0.0, 0.0, 0.0]\nclass = Year 3", fillcolor="#39e54d"] ;
450 -> 451 ;
452 [label="gini = 0.0\nsamples = 1\nvalue = [0.0, 0.69, 0.0, 0.0, 0.0, 0.0, 0.0]\nclass = Year 2", fillcolor="#b7e539"] ;
450 -> 452 ;
453 [label="Bottle_Container_Caps <= 2.67\ngini = 0.0\nsamples = 2\nvalue = [0.83, 0.0, 0.0, 0.0, 0.0, 0.0, 0.0]\nclass = Year 1", fillcolor="#e58139"] ;
449 -> 453 ;
454 [label="gini = 0.0\nsamples = 1\nvalue = [0.41, 0.0, 0.0, 0.0, 0.0, 0.0, 0.0]\nclass = Year 1", fillcolor="#e58139"] ;
453 -> 454 ;
455 [label="gini = 0.0\nsamples = 1\nvalue = [0.41, 0.0, 0.0, 0.0, 0.0, 0.0, 0.0]\nclass = Year 1", fillcolor="#e58139"] ;
453 -> 455 ;
456 [label="Paper_and_Cardboard <= 0.0\ngini = 0.24\nsamples = 2\nvalue = [0.41, 0.0, 0.0, 0.0, 0.0, 2.63, 0.0]\nclass = Year 6", fillcolor="#bd58e9"] ;
448 -> 456 ;
457 [label="gini = 0.0\nsamples = 1\nvalue = [0.0, 0.0, 0.0, 0.0, 0.0, 2.63, 0.0]\nclass = Year 6", fillcolor="#b139e5"] ;
456 -> 457 ;
458 [label="gini = -0.0\nsamples = 1\nvalue = [0.41, 0.0, 0.0, 0.0, 0.0, 0.0, 0.0]\nclass = Year 1", fillcolor="#e58139"] ;
456 -> 458 ;
459 [label="Cigarettes___Flux <= 0.0\ngini = 0.39\nsamples = 7\nvalue = [2.49, 0.0, 0.92, 0.0, 0.0, 0.0, 0.0]\nclass = Year 1", fillcolor="#efb082"] ;
447 -> 459 ;
460 [label="gini = -0.0\nsamples = 6\nvalue = [2.49, 0.0, 0.0, 0.0, 0.0, 0.0, 0.0]\nclass = Year 1", fillcolor="#e58139"] ;
459 -> 460 ;
461 [label="gini = 0.0\nsamples = 1\nvalue = [0.0, 0.0, 0.92, 0.0, 0.0, 0.0, 0.0]\nclass = Year 3", fillcolor="#39e54d"] ;
459 -> 461 ;
462 [label="gini = -0.0\nsamples = 1\nvalue = [0.0, 0.69, 0.0, 0.0, 0.0, 0.0, 0.0]\nclass = Year 2", fillcolor="#b7e539"] ;
446 -> 462 ;
463 [label="gini = 0.0\nsamples = 1\nvalue = [0.0, 0.0, 0.0, 0.0, 0.0, 2.63, 0.0]\nclass = Year 6", fillcolor="#b139e5"] ;
445 -> 463 ;
464 [label="Personal_Care_Products___Flux <= 0.0\ngini = 0.4\nsamples = 2\nvalue = [0.41, 0.0, 0.0, 1.05, 0.0, 0.0, 0.0]\nclass = Year 4", fillcolor="#87efed"] ;
444 -> 464 ;
465 [label="gini = 0.0\nsamples = 1\nvalue = [0.0, 0.0, 0.0, 1.05, 0.0, 0.0, 0.0]\nclass = Year 4", fillcolor="#39e5e2"] ;
464 -> 465 ;
466 [label="gini = 0.0\nsamples = 1\nvalue = [0.41, 0.0, 0.0, 0.0, 0.0, 0.0, 0.0]\nclass = Year 1", fillcolor="#e58139"] ;
464 -> 466 ;
467 [label="gini = 0.0\nsamples = 1\nvalue = [0.0, 0.0, 0.0, 1.05, 0.0, 0.0, 0.0]\nclass = Year 4", fillcolor="#39e5e2"] ;
443 -> 467 ;
468 [label="Total_Debris <= 13.72\ngini = 0.32\nsamples = 6\nvalue = [0.83, 0.69, 1.84, 0.0, 0.0, 0.0, 14.98]\nclass = Year 7", fillcolor="#ea619f"] ;
442 -> 468 ;
469 [label="Plastic_Beverage_Bottles <= 3.7\ngini = 0.22\nsamples = 4\nvalue = [0.41, 0.69, 0.92, 0.0, 0.0, 0.0, 14.98]\nclass = Year 7", fillcolor="#e85295"] ;
468 -> 469 ;
470 [label="Paper_and_Cardboard <= 0.0\ngini = 0.15\nsamples = 3\nvalue = [0.41, 0.0, 0.92, 0.0, 0.0, 0.0, 14.98]\nclass = Year 7", fillcolor="#e74a90"] ;
469 -> 470 ;
471 [label="Foamed_Plastic_Fragments <= 0.8\ngini = 0.05\nsamples = 2\nvalue = [0.41, 0.0, 0.0, 0.0, 0.0, 0.0, 14.98]\nclass = Year 7", fillcolor="#e63e89"] ;
470 -> 471 ;
472 [label="gini = 0.0\nsamples = 1\nvalue = [0.41, 0.0, 0.0, 0.0, 0.0, 0.0, 0.0]\nclass = Year 1", fillcolor="#e58139"] ;
471 -> 472 ;
473 [label="gini = 0.0\nsamples = 1\nvalue = [0.0, 0.0, 0.0, 0.0, 0.0, 0.0, 14.98]\nclass = Year 7", fillcolor="#e53986"] ;
471 -> 473 ;
474 [label="gini = -0.0\nsamples = 1\nvalue = [0.0, 0.0, 0.92, 0.0, 0.0, 0.0, 0.0]\nclass = Year 3", fillcolor="#39e54d"] ;
470 -> 474 ;
475 [label="gini = -0.0\nsamples = 1\nvalue = [0.0, 0.69, 0.0, 0.0, 0.0, 0.0, 0.0]\nclass = Year 2", fillcolor="#b7e539"] ;
469 -> 475 ;
476 [label="Metal_Fragments <= 0.28\ngini = 0.43\nsamples = 2\nvalue = [0.41, 0.0, 0.92, 0.0, 0.0, 0.0, 0.0]\nclass = Year 3", fillcolor="#92f19d"] ;
468 -> 476 ;
477 [label="gini = 0.0\nsamples = 1\nvalue = [0.41, 0.0, 0.0, 0.0, 0.0, 0.0, 0.0]\nclass = Year 1", fillcolor="#e58139"] ;
476 -> 477 ;
478 [label="gini = -0.0\nsamples = 1\nvalue = [0.0, 0.0, 0.92, 0.0, 0.0, 0.0, 0.0]\nclass = Year 3", fillcolor="#39e54d"] ;
476 -> 478 ;
479 [label="Bottle_Container_Caps___Flux <= 0.0\ngini = 0.21\nsamples = 3\nvalue = [0.41, 0.0, 0.0, 0.0, 3.04, 0.0, 0.0]\nclass = Year 5", fillcolor="#546de9"] ;
441 -> 479 ;
480 [label="Plastic_Rope_Net___Flux <= 0.0\ngini = 0.34\nsamples = 2\nvalue = [0.41, 0.0, 0.0, 0.0, 1.52, 0.0, 0.0]\nclass = Year 5", fillcolor="#6f84ec"] ;
479 -> 480 ;
481 [label="gini = 0.0\nsamples = 1\nvalue = [0.0, 0.0, 0.0, 0.0, 1.52, 0.0, 0.0]\nclass = Year 5", fillcolor="#3956e5"] ;
480 -> 481 ;
482 [label="gini = 0.0\nsamples = 1\nvalue = [0.41, 0.0, 0.0, 0.0, 0.0, 0.0, 0.0]\nclass = Year 1", fillcolor="#e58139"] ;
480 -> 482 ;
483 [label="gini = 0.0\nsamples = 1\nvalue = [0.0, 0.0, 0.0, 0.0, 1.52, 0.0, 0.0]\nclass = Year 5", fillcolor="#3956e5"] ;
479 -> 483 ;
484 [label="Plastic_Utensils___Flux <= 0.0\ngini = 0.75\nsamples = 34\nvalue = [2.9, 3.46, 3.68, 6.33, 15.21, 5.26, 0.0]\nclass = Year 5", fillcolor="#c5cef7"] ;
28 -> 484 ;
485 [label="Rubber_Other___Flux <= 0.08\ngini = 0.75\nsamples = 33\nvalue = [2.9, 3.46, 2.76, 6.33, 15.21, 5.26, 0.0]\nclass = Year 5", fillcolor="#c4ccf7"] ;
484 -> 485 ;
486 [label="Other_Jugs_Containers <= 0.72\ngini = 0.72\nsamples = 29\nvalue = [2.49, 2.08, 2.76, 5.27, 15.21, 5.26, 0.0]\nclass = Year 5", fillcolor="#b8c3f6"] ;
485 -> 486 ;
487 [label="Food_Wrappers <= 0.64\ngini = 0.67\nsamples = 24\nvalue = [1.66, 2.08, 2.76, 2.11, 15.21, 5.26, 0.0]\nclass = Year 5", fillcolor="#acb8f4"] ;
486 -> 487 ;
488 [label="Rope_Net_Pieces__non_nylon____F <= 0.0\ngini = 0.68\nsamples = 13\nvalue = [1.24, 0.69, 0.92, 1.05, 7.6, 5.26, 0.0]\nclass = Year 5", fillcolor="#d7ddfa"] ;
487 -> 488 ;
489 [label="Plastic <= 28.37\ngini = 0.65\nsamples = 12\nvalue = [1.24, 0.69, 0.0, 1.05, 7.6, 5.26, 0.0]\nclass = Year 5", fillcolor="#d3daf9"] ;
488 -> 489 ;
490 [label="Aluminum_Tin_Cans___Flux <= 0.0\ngini = 0.61\nsamples = 11\nvalue = [1.24, 0.69, 0.0, 1.05, 7.6, 2.63, 0.0]\nclass = Year 5", fillcolor="#a2b0f3"] ;
489 -> 490 ;
491 [label="Rubber___Flux <= 0.0\ngini = 0.51\nsamples = 9\nvalue = [1.24, 0.69, 0.0, 1.05, 6.08, 0.0, 0.0]\nclass = Year 5", fillcolor="#8597ef"] ;
490 -> 491 ;
492 [label="Straws___Flux <= 0.0\ngini = 0.48\nsamples = 8\nvalue = [0.83, 0.69, 0.0, 1.05, 6.08, 0.0, 0.0]\nclass = Year 5", fillcolor="#7c8fee"] ;
491 -> 492 ;
493 [label="Hard_Plastic_Fragments___Flux <= 0.0\ngini = 0.43\nsamples = 7\nvalue = [0.41, 0.69, 0.0, 1.05, 6.08, 0.0, 0.0]\nclass = Year 5", fillcolor="#7589ed"] ;
492 -> 493 ;
494 [label="Plastic_Other___Flux <= 0.0\ngini = 0.48\nsamples = 4\nvalue = [0.41, 0.0, 0.0, 1.05, 3.04, 0.0, 0.0]\nclass = Year 5", fillcolor="#8d9ef0"] ;
493 -> 494 ;
495 [label="Cigarettes___Flux <= 0.0\ngini = 0.21\nsamples = 3\nvalue = [0.41, 0.0, 0.0, 0.0, 3.04, 0.0, 0.0]\nclass = Year 5", fillcolor="#546de9"] ;
494 -> 495 ;
496 [label="Total_Debris <= 0.0\ngini = 0.34\nsamples = 2\nvalue = [0.41, 0.0, 0.0, 0.0, 1.52, 0.0, 0.0]\nclass = Year 5", fillcolor="#6f84ec"] ;
495 -> 496 ;
497 [label="gini = 0.0\nsamples = 1\nvalue = [0.0, 0.0, 0.0, 0.0, 1.52, 0.0, 0.0]\nclass = Year 5", fillcolor="#3956e5"] ;
496 -> 497 ;
498 [label="gini = 0.0\nsamples = 1\nvalue = [0.41, 0.0, 0.0, 0.0, 0.0, 0.0, 0.0]\nclass = Year 1", fillcolor="#e58139"] ;
496 -> 498 ;
499 [label="gini = 0.0\nsamples = 1\nvalue = [0.0, 0.0, 0.0, 0.0, 1.52, 0.0, 0.0]\nclass = Year 5", fillcolor="#3956e5"] ;
495 -> 499 ;
500 [label="gini = 0.0\nsamples = 1\nvalue = [0.0, 0.0, 0.0, 1.05, 0.0, 0.0, 0.0]\nclass = Year 4", fillcolor="#39e5e2"] ;
494 -> 500 ;
501 [label="Plastic <= 20.55\ngini = 0.3\nsamples = 3\nvalue = [0.0, 0.69, 0.0, 0.0, 3.04, 0.0, 0.0]\nclass = Year 5", fillcolor="#667ceb"] ;
493 -> 501 ;
502 [label="gini = 0.0\nsamples = 1\nvalue = [0.0, 0.69, 0.0, 0.0, 0.0, 0.0, 0.0]\nclass = Year 2", fillcolor="#b7e539"] ;
501 -> 502 ;
503 [label="Foamed_Plastic_Fragments <= 14.93\ngini = 0.0\nsamples = 2\nvalue = [0.0, 0.0, 0.0, 0.0, 3.04, 0.0, 0.0]\nclass = Year 5", fillcolor="#3956e5"] ;
501 -> 503 ;
504 [label="gini = 0.0\nsamples = 1\nvalue = [0.0, 0.0, 0.0, 0.0, 1.52, 0.0, 0.0]\nclass = Year 5", fillcolor="#3956e5"] ;
503 -> 504 ;
505 [label="gini = 0.0\nsamples = 1\nvalue = [0.0, 0.0, 0.0, 0.0, 1.52, 0.0, 0.0]\nclass = Year 5", fillcolor="#3956e5"] ;
503 -> 505 ;
506 [label="gini = 0.0\nsamples = 1\nvalue = [0.41, 0.0, 0.0, 0.0, 0.0, 0.0, 0.0]\nclass = Year 1", fillcolor="#e58139"] ;
492 -> 506 ;
507 [label="gini = 0.0\nsamples = 1\nvalue = [0.41, 0.0, 0.0, 0.0, 0.0, 0.0, 0.0]\nclass = Year 1", fillcolor="#e58139"] ;
491 -> 507 ;
508 [label="Foamed_Plastic_Fragments___Flux <= 0.0\ngini = 0.46\nsamples = 2\nvalue = [0.0, 0.0, 0.0, 0.0, 1.52, 2.63, 0.0]\nclass = Year 6", fillcolor="#deacf4"] ;
490 -> 508 ;
509 [label="gini = 0.0\nsamples = 1\nvalue = [0.0, 0.0, 0.0, 0.0, 1.52, 0.0, 0.0]\nclass = Year 5", fillcolor="#3956e5"] ;
508 -> 509 ;
510 [label="gini = 0.0\nsamples = 1\nvalue = [0.0, 0.0, 0.0, 0.0, 0.0, 2.63, 0.0]\nclass = Year 6", fillcolor="#b139e5"] ;
508 -> 510 ;
511 [label="gini = 0.0\nsamples = 1\nvalue = [0.0, 0.0, 0.0, 0.0, 0.0, 2.63, 0.0]\nclass = Year 6", fillcolor="#b139e5"] ;
489 -> 511 ;
512 [label="gini = -0.0\nsamples = 1\nvalue = [0.0, 0.0, 0.92, 0.0, 0.0, 0.0, 0.0]\nclass = Year 3", fillcolor="#39e54d"] ;
488 -> 512 ;
513 [label="Cigarettes <= 15.35\ngini = 0.57\nsamples = 11\nvalue = [0.41, 1.38, 1.84, 1.05, 7.6, 0.0, 0.0]\nclass = Year 5", fillcolor="#92a2f1"] ;
487 -> 513 ;
514 [label="Rubber <= 1.41\ngini = 0.54\nsamples = 10\nvalue = [0.0, 1.38, 1.84, 1.05, 7.6, 0.0, 0.0]\nclass = Year 5", fillcolor="#8d9ef0"] ;
513 -> 514 ;
515 [label="Plastic_Rope_Net___Flux <= 0.0\ngini = 0.5\nsamples = 9\nvalue = [0.0, 0.69, 1.84, 1.05, 7.6, 0.0, 0.0]\nclass = Year 5", fillcolor="#8597ef"] ;
514 -> 515 ;
516 [label="Filmed_Plastic_Fragments <= 1.69\ngini = 0.3\nsamples = 3\nvalue = [0.0, 0.69, 0.0, 0.0, 3.04, 0.0, 0.0]\nclass = Year 5", fillcolor="#667ceb"] ;
515 -> 516 ;
517 [label="Foamed_Plastic_Fragments <= 6.96\ngini = 0.0\nsamples = 2\nvalue = [0.0, 0.0, 0.0, 0.0, 3.04, 0.0, 0.0]\nclass = Year 5", fillcolor="#3956e5"] ;
516 -> 517 ;
518 [label="gini = 0.0\nsamples = 1\nvalue = [0.0, 0.0, 0.0, 0.0, 1.52, 0.0, 0.0]\nclass = Year 5", fillcolor="#3956e5"] ;
517 -> 518 ;
519 [label="gini = 0.0\nsamples = 1\nvalue = [0.0, 0.0, 0.0, 0.0, 1.52, 0.0, 0.0]\nclass = Year 5", fillcolor="#3956e5"] ;
517 -> 519 ;
520 [label="gini = -0.0\nsamples = 1\nvalue = [0.0, 0.69, 0.0, 0.0, 0.0, 0.0, 0.0]\nclass = Year 2", fillcolor="#b7e539"] ;
516 -> 520 ;
521 [label="Aluminum_Tin_Cans <= 0.26\ngini = 0.54\nsamples = 6\nvalue = [0.0, 0.0, 1.84, 1.05, 4.56, 0.0, 0.0]\nclass = Year 5", fillcolor="#9fadf2"] ;
515 -> 521 ;
522 [label="Bottle_Container_Caps___Flux <= 0.0\ngini = 0.65\nsamples = 4\nvalue = [0.0, 0.0, 1.84, 1.05, 1.52, 0.0, 0.0]\nclass = Year 3", fillcolor="#e9fceb"] ;
521 -> 522 ;
523 [label="gini = 0.0\nsamples = 2\nvalue = [0.0, 0.0, 1.84, 0.0, 0.0, 0.0, 0.0]\nclass = Year 3", fillcolor="#39e54d"] ;
522 -> 523 ;
524 [label="Metal <= 0.09\ngini = 0.48\nsamples = 2\nvalue = [0.0, 0.0, 0.0, 1.05, 1.52, 0.0, 0.0]\nclass = Year 5", fillcolor="#c2cbf7"] ;
522 -> 524 ;
525 [label="gini = 0.0\nsamples = 1\nvalue = [0.0, 0.0, 0.0, 0.0, 1.52, 0.0, 0.0]\nclass = Year 5", fillcolor="#3956e5"] ;
524 -> 525 ;
526 [label="gini = 0.0\nsamples = 1\nvalue = [0.0, 0.0, 0.0, 1.05, 0.0, 0.0, 0.0]\nclass = Year 4", fillcolor="#39e5e2"] ;
524 -> 526 ;
527 [label="gini = 0.0\nsamples = 2\nvalue = [0.0, 0.0, 0.0, 0.0, 3.04, 0.0, 0.0]\nclass = Year 5", fillcolor="#3956e5"] ;
521 -> 527 ;
528 [label="gini = -0.0\nsamples = 1\nvalue = [0.0, 0.69, 0.0, 0.0, 0.0, 0.0, 0.0]\nclass = Year 2", fillcolor="#b7e539"] ;
514 -> 528 ;
529 [label="gini = 0.0\nsamples = 1\nvalue = [0.41, 0.0, 0.0, 0.0, 0.0, 0.0, 0.0]\nclass = Year 1", fillcolor="#e58139"] ;
513 -> 529 ;
530 [label="Food_Wrappers <= 0.45\ngini = 0.33\nsamples = 5\nvalue = [0.83, 0.0, 0.0, 3.16, 0.0, 0.0, 0.0]\nclass = Year 4", fillcolor="#6decea"] ;
486 -> 530 ;
531 [label="gini = 0.0\nsamples = 2\nvalue = [0.83, 0.0, 0.0, 0.0, 0.0, 0.0, 0.0]\nclass = Year 1", fillcolor="#e58139"] ;
530 -> 531 ;
532 [label="gini = 0.0\nsamples = 3\nvalue = [0.0, 0.0, 0.0, 3.16, 0.0, 0.0, 0.0]\nclass = Year 4", fillcolor="#39e5e2"] ;
530 -> 532 ;
533 [label="Plastic_Rope_Net___Flux <= 0.0\ngini = 0.61\nsamples = 4\nvalue = [0.41, 1.38, 0.0, 1.05, 0.0, 0.0, 0.0]\nclass = Year 2", fillcolor="#f2fadb"] ;
485 -> 533 ;
534 [label="gini = 0.0\nsamples = 2\nvalue = [0.0, 1.38, 0.0, 0.0, 0.0, 0.0, 0.0]\nclass = Year 2", fillcolor="#b7e539"] ;
533 -> 534 ;
535 [label="Metal_Other <= 0.83\ngini = 0.4\nsamples = 2\nvalue = [0.41, 0.0, 0.0, 1.05, 0.0, 0.0, 0.0]\nclass = Year 4", fillcolor="#87efed"] ;
533 -> 535 ;
536 [label="gini = 0.0\nsamples = 1\nvalue = [0.41, 0.0, 0.0, 0.0, 0.0, 0.0, 0.0]\nclass = Year 1", fillcolor="#e58139"] ;
535 -> 536 ;
537 [label="gini = 0.0\nsamples = 1\nvalue = [0.0, 0.0, 0.0, 1.05, 0.0, 0.0, 0.0]\nclass = Year 4", fillcolor="#39e5e2"] ;
535 -> 537 ;
538 [label="gini = 0.0\nsamples = 1\nvalue = [0.0, 0.0, 0.92, 0.0, 0.0, 0.0, 0.0]\nclass = Year 3", fillcolor="#39e54d"] ;
484 -> 538 ;
539 [label="Hard_Plastic_Fragments <= 1.84\ngini = 0.48\nsamples = 6\nvalue = [0.0, 2.77, 1.84, 0.0, 0.0, 0.0, 0.0]\nclass = Year 2", fillcolor="#e7f6bc"] ;
27 -> 539 ;
540 [label="gini = 0.0\nsamples = 2\nvalue = [0.0, 1.38, 0.0, 0.0, 0.0, 0.0, 0.0]\nclass = Year 2", fillcolor="#b7e539"] ;
539 -> 540 ;
541 [label="Unclassified___Flux <= 16.29\ngini = 0.49\nsamples = 4\nvalue = [0.0, 1.38, 1.84, 0.0, 0.0, 0.0, 0.0]\nclass = Year 3", fillcolor="#cef9d3"] ;
539 -> 541 ;
542 [label="gini = 0.0\nsamples = 1\nvalue = [0.0, 0.69, 0.0, 0.0, 0.0, 0.0, 0.0]\nclass = Year 2", fillcolor="#b7e539"] ;
541 -> 542 ;
543 [label="Processed_Lumber <= 0.0\ngini = 0.4\nsamples = 3\nvalue = [0.0, 0.69, 1.84, 0.0, 0.0, 0.0, 0.0]\nclass = Year 3", fillcolor="#84ef90"] ;
541 -> 543 ;
544 [label="Filmed_Plastic_Fragments <= 3.84\ngini = 0.49\nsamples = 2\nvalue = [0.0, 0.69, 0.92, 0.0, 0.0, 0.0, 0.0]\nclass = Year 3", fillcolor="#cef9d3"] ;
543 -> 544 ;
545 [label="gini = 0.0\nsamples = 1\nvalue = [0.0, 0.69, 0.0, 0.0, 0.0, 0.0, 0.0]\nclass = Year 2", fillcolor="#b7e539"] ;
544 -> 545 ;
546 [label="gini = 0.0\nsamples = 1\nvalue = [0.0, 0.0, 0.92, 0.0, 0.0, 0.0, 0.0]\nclass = Year 3", fillcolor="#39e54d"] ;
544 -> 546 ;
547 [label="gini = 0.0\nsamples = 1\nvalue = [0.0, 0.0, 0.92, 0.0, 0.0, 0.0, 0.0]\nclass = Year 3", fillcolor="#39e54d"] ;
543 -> 547 ;
548 [label="Cigarettes___Flux <= 0.0\ngini = 0.33\nsamples = 5\nvalue = [0.83, 0.0, 0.0, 3.16, 0.0, 0.0, 0.0]\nclass = Year 4", fillcolor="#6decea"] ;
26 -> 548 ;
549 [label="Processed_Lumber___Flux <= 0.0\ngini = 0.2\nsamples = 4\nvalue = [0.41, 0.0, 0.0, 3.16, 0.0, 0.0, 0.0]\nclass = Year 4", fillcolor="#53e8e6"] ;
548 -> 549 ;
550 [label="Plastic <= 6.84\ngini = 0.27\nsamples = 3\nvalue = [0.41, 0.0, 0.0, 2.11, 0.0, 0.0, 0.0]\nclass = Year 4", fillcolor="#60eae8"] ;
549 -> 550 ;
551 [label="Hard_Plastic_Fragments <= 0.15\ngini = 0.4\nsamples = 2\nvalue = [0.41, 0.0, 0.0, 1.05, 0.0, 0.0, 0.0]\nclass = Year 4", fillcolor="#87efed"] ;
550 -> 551 ;
552 [label="gini = 0.0\nsamples = 1\nvalue = [0.41, 0.0, 0.0, 0.0, 0.0, 0.0, 0.0]\nclass = Year 1", fillcolor="#e58139"] ;
551 -> 552 ;
553 [label="gini = 0.0\nsamples = 1\nvalue = [0.0, 0.0, 0.0, 1.05, 0.0, 0.0, 0.0]\nclass = Year 4", fillcolor="#39e5e2"] ;
551 -> 553 ;
554 [label="gini = 0.0\nsamples = 1\nvalue = [0.0, 0.0, 0.0, 1.05, 0.0, 0.0, 0.0]\nclass = Year 4", fillcolor="#39e5e2"] ;
550 -> 554 ;
555 [label="gini = 0.0\nsamples = 1\nvalue = [0.0, 0.0, 0.0, 1.05, 0.0, 0.0, 0.0]\nclass = Year 4", fillcolor="#39e5e2"] ;
549 -> 555 ;
556 [label="gini = -0.0\nsamples = 1\nvalue = [0.41, 0.0, 0.0, 0.0, 0.0, 0.0, 0.0]\nclass = Year 1", fillcolor="#e58139"] ;
548 -> 556 ;
557 [label="Personal_Care_Products___Flux <= 0.0\ngini = 0.59\nsamples = 12\nvalue = [0.83, 1.38, 0.0, 3.16, 1.52, 10.51, 0.0]\nclass = Year 6", fillcolor="#d799f2"] ;
25 -> 557 ;
558 [label="Total_Debris <= 15.51\ngini = 0.54\nsamples = 10\nvalue = [0.41, 0.69, 0.0, 3.16, 1.52, 10.51, 0.0]\nclass = Year 6", fillcolor="#d390f0"] ;
557 -> 558 ;
559 [label="Foamed_Plastic_Fragments___Flux <= 0.0\ngini = 0.17\nsamples = 5\nvalue = [0.0, 0.0, 0.0, 1.05, 0.0, 10.51, 0.0]\nclass = Year 6", fillcolor="#b94de8"] ;
558 -> 559 ;
560 [label="gini = 0.0\nsamples = 2\nvalue = [0.0, 0.0, 0.0, 0.0, 0.0, 5.26, 0.0]\nclass = Year 6", fillcolor="#b139e5"] ;
559 -> 560 ;
561 [label="Processed_Lumber <= 0.0\ngini = 0.28\nsamples = 3\nvalue = [0.0, 0.0, 0.0, 1.05, 0.0, 5.26, 0.0]\nclass = Year 6", fillcolor="#c161ea"] ;
559 -> 561 ;
562 [label="gini = 0.0\nsamples = 1\nvalue = [0.0, 0.0, 0.0, 1.05, 0.0, 0.0, 0.0]\nclass = Year 4", fillcolor="#39e5e2"] ;
561 -> 562 ;
563 [label="gini = 0.0\nsamples = 2\nvalue = [0.0, 0.0, 0.0, 0.0, 0.0, 5.26, 0.0]\nclass = Year 6", fillcolor="#b139e5"] ;
561 -> 563 ;
564 [label="Bags <= 1.08\ngini = 0.67\nsamples = 5\nvalue = [0.41, 0.69, 0.0, 2.11, 1.52, 0.0, 0.0]\nclass = Year 4", fillcolor="#dbfafa"] ;
558 -> 564 ;
565 [label="Cigarettes <= 24.06\ngini = 0.51\nsamples = 4\nvalue = [0.41, 0.69, 0.0, 2.11, 0.0, 0.0, 0.0]\nclass = Year 4", fillcolor="#90f0ef"] ;
564 -> 565 ;
566 [label="Foamed_Plastic_Fragments___Flux <= 0.0\ngini = 0.37\nsamples = 3\nvalue = [0.0, 0.69, 0.0, 2.11, 0.0, 0.0, 0.0]\nclass = Year 4", fillcolor="#7aeeec"] ;
565 -> 566 ;
567 [label="Cloth_Fabric <= 1.04\ngini = 0.48\nsamples = 2\nvalue = [0.0, 0.69, 0.0, 1.05, 0.0, 0.0, 0.0]\nclass = Year 4", fillcolor="#bbf6f5"] ;
566 -> 567 ;
568 [label="gini = 0.0\nsamples = 1\nvalue = [0.0, 0.0, 0.0, 1.05, 0.0, 0.0, 0.0]\nclass = Year 4", fillcolor="#39e5e2"] ;
567 -> 568 ;
569 [label="gini = -0.0\nsamples = 1\nvalue = [0.0, 0.69, 0.0, 0.0, 0.0, 0.0, 0.0]\nclass = Year 2", fillcolor="#b7e539"] ;
567 -> 569 ;
570 [label="gini = 0.0\nsamples = 1\nvalue = [0.0, 0.0, 0.0, 1.05, 0.0, 0.0, 0.0]\nclass = Year 4", fillcolor="#39e5e2"] ;
566 -> 570 ;
571 [label="gini = -0.0\nsamples = 1\nvalue = [0.41, 0.0, 0.0, 0.0, 0.0, 0.0, 0.0]\nclass = Year 1", fillcolor="#e58139"] ;
565 -> 571 ;
572 [label="gini = 0.0\nsamples = 1\nvalue = [0.0, 0.0, 0.0, 0.0, 1.52, 0.0, 0.0]\nclass = Year 5", fillcolor="#3956e5"] ;
564 -> 572 ;
573 [label="Filmed_Plastic_Fragments___Flux <= 0.0\ngini = 0.47\nsamples = 2\nvalue = [0.41, 0.69, 0.0, 0.0, 0.0, 0.0, 0.0]\nclass = Year 2", fillcolor="#e2f5b0"] ;
557 -> 573 ;
574 [label="gini = 0.0\nsamples = 1\nvalue = [0.41, 0.0, 0.0, 0.0, 0.0, 0.0, 0.0]\nclass = Year 1", fillcolor="#e58139"] ;
573 -> 574 ;
575 [label="gini = -0.0\nsamples = 1\nvalue = [0.0, 0.69, 0.0, 0.0, 0.0, 0.0, 0.0]\nclass = Year 2", fillcolor="#b7e539"] ;
573 -> 575 ;
576 [label="gini = -0.0\nsamples = 1\nvalue = [0.0, 0.0, 0.0, 0.0, 1.52, 0.0, 0.0]\nclass = Year 5", fillcolor="#3956e5"] ;
24 -> 576 ;
577 [label="Plastic_Rope_Net <= 7.68\ngini = 0.78\nsamples = 75\nvalue = [2.07, 6.23, 15.62, 22.15, 25.85, 15.77, 0.0]\nclass = Year 5", fillcolor="#f4f5fe"] ;
23 -> 577 ;
578 [label="Processed_Lumber_Other___Flux <= 0.0\ngini = 0.79\nsamples = 65\nvalue = [1.66, 5.53, 15.62, 16.88, 21.29, 15.77, 0.0]\nclass = Year 5", fillcolor="#f0f3fd"] ;
577 -> 578 ;
579 [label="Fishing_Lures___Line___Flux <= 0.0\ngini = 0.79\nsamples = 63\nvalue = [1.66, 5.53, 15.62, 14.77, 21.29, 15.77, 0.0]\nclass = Year 5", fillcolor="#eceffd"] ;
578 -> 579 ;
580 [label="Unclassified <= 0.26\ngini = 0.79\nsamples = 54\nvalue = [1.24, 5.53, 12.87, 13.71, 15.21, 15.77, 0.0]\nclass = Year 6", fillcolor="#fefdff"] ;
579 -> 580 ;
581 [label="Hard_Plastic_Fragments___Flux <= 0.0\ngini = 0.78\nsamples = 43\nvalue = [1.24, 4.84, 6.43, 13.71, 12.17, 13.14, 0.0]\nclass = Year 4", fillcolor="#fcffff"] ;
580 -> 581 ;
582 [label="Metal_Other___Flux <= 0.0\ngini = 0.77\nsamples = 39\nvalue = [1.24, 4.15, 3.68, 13.71, 12.17, 13.14, 0.0]\nclass = Year 4", fillcolor="#fcffff"] ;
581 -> 582 ;
583 [label="Rubber___Flux <= 0.0\ngini = 0.77\nsamples = 38\nvalue = [1.24, 4.15, 3.68, 13.71, 10.64, 13.14, 0.0]\nclass = Year 4", fillcolor="#fcffff"] ;
582 -> 583 ;
584 [label="Processed_Lumber___Flux <= 0.0\ngini = 0.75\nsamples = 35\nvalue = [1.24, 2.77, 2.76, 13.71, 10.64, 13.14, 0.0]\nclass = Year 4", fillcolor="#fbfffe"] ;
583 -> 584 ;
585 [label="Cloth_Fabric <= 0.57\ngini = 0.73\nsamples = 30\nvalue = [1.24, 2.08, 0.92, 11.6, 10.64, 13.14, 0.0]\nclass = Year 6", fillcolor="#fbf4fe"] ;
584 -> 585 ;
586 [label="Plastic <= 33.23\ngini = 0.69\nsamples = 23\nvalue = [0.0, 1.38, 0.0, 11.6, 9.12, 10.51, 0.0]\nclass = Year 4", fillcolor="#f5fefe"] ;
585 -> 586 ;
587 [label="Paper_and_Cardboard <= 0.46\ngini = 0.67\nsamples = 18\nvalue = [0.0, 1.38, 0.0, 10.55, 4.56, 7.88, 0.0]\nclass = Year 4", fillcolor="#dffbfa"] ;
586 -> 587 ;
588 [label="Hard_Plastic_Fragments___Flux <= 0.0\ngini = 0.66\nsamples = 17\nvalue = [0.0, 1.38, 0.0, 10.55, 4.56, 5.26, 0.0]\nclass = Year 4", fillcolor="#bff7f6"] ;
587 -> 588 ;
589 [label="Rubber_Other___Flux <= 0.0\ngini = 0.63\nsamples = 16\nvalue = [0.0, 1.38, 0.0, 10.55, 3.04, 5.26, 0.0]\nclass = Year 4", fillcolor="#b9f6f5"] ;
588 -> 589 ;
590 [label="Aluminum_Tin_Cans <= 1.18\ngini = 0.61\nsamples = 15\nvalue = [0.0, 0.69, 0.0, 10.55, 3.04, 5.26, 0.0]\nclass = Year 4", fillcolor="#b6f5f4"] ;
589 -> 590 ;
591 [label="Cups <= 0.13\ngini = 0.64\nsamples = 13\nvalue = [0.0, 0.69, 0.0, 8.44, 3.04, 5.26, 0.0]\nclass = Year 4", fillcolor="#cbf8f7"] ;
590 -> 591 ;
592 [label="Lumber_Building_Material <= 1.49\ngini = 0.62\nsamples = 11\nvalue = [0.0, 0.69, 0.0, 7.38, 3.04, 2.63, 0.0]\nclass = Year 4", fillcolor="#aff4f3"] ;
591 -> 592 ;
593 [label="Hard_Plastic_Fragments___Flux <= 0.0\ngini = 0.41\nsamples = 8\nvalue = [0.0, 0.69, 0.0, 6.33, 1.52, 0.0, 0.0]\nclass = Year 4", fillcolor="#77edeb"] ;
592 -> 593 ;
594 [label="Bottle_Container_Caps___Flux <= 0.0\ngini = 0.31\nsamples = 7\nvalue = [0.0, 0.0, 0.0, 6.33, 1.52, 0.0, 0.0]\nclass = Year 4", fillcolor="#69ebe9"] ;
593 -> 594 ;
595 [label="Foamed_Plastic_Fragments <= 0.98\ngini = 0.44\nsamples = 4\nvalue = [0.0, 0.0, 0.0, 3.16, 1.52, 0.0, 0.0]\nclass = Year 4", fillcolor="#98f1f0"] ;
594 -> 595 ;
596 [label="gini = 0.0\nsamples = 2\nvalue = [0.0, 0.0, 0.0, 2.11, 0.0, 0.0, 0.0]\nclass = Year 4", fillcolor="#39e5e2"] ;
595 -> 596 ;
597 [label="Plastic___Flux <= 0.0\ngini = 0.48\nsamples = 2\nvalue = [0.0, 0.0, 0.0, 1.05, 1.52, 0.0, 0.0]\nclass = Year 5", fillcolor="#c2cbf7"] ;
595 -> 597 ;
598 [label="gini = 0.0\nsamples = 1\nvalue = [0.0, 0.0, 0.0, 0.0, 1.52, 0.0, 0.0]\nclass = Year 5", fillcolor="#3956e5"] ;
597 -> 598 ;
599 [label="gini = 0.0\nsamples = 1\nvalue = [0.0, 0.0, 0.0, 1.05, 0.0, 0.0, 0.0]\nclass = Year 4", fillcolor="#39e5e2"] ;
597 -> 599 ;
600 [label="gini = 0.0\nsamples = 3\nvalue = [0.0, 0.0, 0.0, 3.16, 0.0, 0.0, 0.0]\nclass = Year 4", fillcolor="#39e5e2"] ;
594 -> 600 ;
601 [label="gini = -0.0\nsamples = 1\nvalue = [0.0, 0.69, 0.0, 0.0, 0.0, 0.0, 0.0]\nclass = Year 2", fillcolor="#b7e539"] ;
593 -> 601 ;
602 [label="Filmed_Plastic_Fragments <= 0.13\ngini = 0.62\nsamples = 3\nvalue = [0.0, 0.0, 0.0, 1.05, 1.52, 2.63, 0.0]\nclass = Year 6", fillcolor="#e8c3f7"] ;
592 -> 602 ;
603 [label="Hard_Plastic_Fragments___Flux <= 0.0\ngini = 0.46\nsamples = 2\nvalue = [0.0, 0.0, 0.0, 0.0, 1.52, 2.63, 0.0]\nclass = Year 6", fillcolor="#deacf4"] ;
602 -> 603 ;
604 [label="gini = 0.0\nsamples = 1\nvalue = [0.0, 0.0, 0.0, 0.0, 0.0, 2.63, 0.0]\nclass = Year 6", fillcolor="#b139e5"] ;
603 -> 604 ;
605 [label="gini = 0.0\nsamples = 1\nvalue = [0.0, 0.0, 0.0, 0.0, 1.52, 0.0, 0.0]\nclass = Year 5", fillcolor="#3956e5"] ;
603 -> 605 ;
606 [label="gini = 0.0\nsamples = 1\nvalue = [0.0, 0.0, 0.0, 1.05, 0.0, 0.0, 0.0]\nclass = Year 4", fillcolor="#39e5e2"] ;
602 -> 606 ;
607 [label="Plastic_Other___Flux <= 0.0\ngini = 0.41\nsamples = 2\nvalue = [0.0, 0.0, 0.0, 1.05, 0.0, 2.63, 0.0]\nclass = Year 6", fillcolor="#d088ef"] ;
591 -> 607 ;
608 [label="gini = 0.0\nsamples = 1\nvalue = [0.0, 0.0, 0.0, 0.0, 0.0, 2.63, 0.0]\nclass = Year 6", fillcolor="#b139e5"] ;
607 -> 608 ;
609 [label="gini = 0.0\nsamples = 1\nvalue = [0.0, 0.0, 0.0, 1.05, 0.0, 0.0, 0.0]\nclass = Year 4", fillcolor="#39e5e2"] ;
607 -> 609 ;
610 [label="gini = 0.0\nsamples = 2\nvalue = [0.0, 0.0, 0.0, 2.11, 0.0, 0.0, 0.0]\nclass = Year 4", fillcolor="#39e5e2"] ;
590 -> 610 ;
611 [label="gini = -0.0\nsamples = 1\nvalue = [0.0, 0.69, 0.0, 0.0, 0.0, 0.0, 0.0]\nclass = Year 2", fillcolor="#b7e539"] ;
589 -> 611 ;
612 [label="gini = 0.0\nsamples = 1\nvalue = [0.0, 0.0, 0.0, 0.0, 1.52, 0.0, 0.0]\nclass = Year 5", fillcolor="#3956e5"] ;
588 -> 612 ;
613 [label="gini = 0.0\nsamples = 1\nvalue = [0.0, 0.0, 0.0, 0.0, 0.0, 2.63, 0.0]\nclass = Year 6", fillcolor="#b139e5"] ;
587 -> 613 ;
614 [label="Lumber_Building_Material___Flux <= 0.0\ngini = 0.58\nsamples = 5\nvalue = [0.0, 0.0, 0.0, 1.05, 4.56, 2.63, 0.0]\nclass = Year 5", fillcolor="#bbc5f6"] ;
586 -> 614 ;
615 [label="Personal_Care_Products <= 0.56\ngini = 0.0\nsamples = 3\nvalue = [0.0, 0.0, 0.0, 0.0, 4.56, 0.0, 0.0]\nclass = Year 5", fillcolor="#3956e5"] ;
614 -> 615 ;
616 [label="gini = 0.0\nsamples = 2\nvalue = [0.0, 0.0, 0.0, 0.0, 3.04, 0.0, 0.0]\nclass = Year 5", fillcolor="#3956e5"] ;
615 -> 616 ;
617 [label="gini = 0.0\nsamples = 1\nvalue = [0.0, 0.0, 0.0, 0.0, 1.52, 0.0, 0.0]\nclass = Year 5", fillcolor="#3956e5"] ;
615 -> 617 ;
618 [label="Straws <= 1.39\ngini = 0.41\nsamples = 2\nvalue = [0.0, 0.0, 0.0, 1.05, 0.0, 2.63, 0.0]\nclass = Year 6", fillcolor="#d088ef"] ;
614 -> 618 ;
619 [label="gini = 0.0\nsamples = 1\nvalue = [0.0, 0.0, 0.0, 0.0, 0.0, 2.63, 0.0]\nclass = Year 6", fillcolor="#b139e5"] ;
618 -> 619 ;
620 [label="gini = 0.0\nsamples = 1\nvalue = [0.0, 0.0, 0.0, 1.05, 0.0, 0.0, 0.0]\nclass = Year 4", fillcolor="#39e5e2"] ;
618 -> 620 ;
621 [label="Plastic_Other___Flux <= 0.0\ngini = 0.75\nsamples = 7\nvalue = [1.24, 0.69, 0.92, 0.0, 1.52, 2.63, 0.0]\nclass = Year 6", fillcolor="#efd7fa"] ;
585 -> 621 ;
622 [label="Rubber_Fragments___Flux <= 0.0\ngini = 0.73\nsamples = 6\nvalue = [1.24, 0.69, 0.92, 0.0, 1.52, 0.0, 0.0]\nclass = Year 5", fillcolor="#edf0fd"] ;
621 -> 622 ;
623 [label="Fabric_Pieces___Flux <= 0.0\ngini = 0.65\nsamples = 5\nvalue = [1.24, 0.0, 0.92, 0.0, 1.52, 0.0, 0.0]\nclass = Year 5", fillcolor="#e8ecfc"] ;
622 -> 623 ;
624 [label="Food_Wrappers <= 0.72\ngini = 0.49\nsamples = 4\nvalue = [1.24, 0.0, 0.0, 0.0, 1.52, 0.0, 0.0]\nclass = Year 5", fillcolor="#dbe0fa"] ;
623 -> 624 ;
625 [label="gini = 0.0\nsamples = 1\nvalue = [0.0, 0.0, 0.0, 0.0, 1.52, 0.0, 0.0]\nclass = Year 5", fillcolor="#3956e5"] ;
624 -> 625 ;
626 [label="gini = -0.0\nsamples = 3\nvalue = [1.24, 0.0, 0.0, 0.0, 0.0, 0.0, 0.0]\nclass = Year 1", fillcolor="#e58139"] ;
624 -> 626 ;
627 [label="gini = 0.0\nsamples = 1\nvalue = [0.0, 0.0, 0.92, 0.0, 0.0, 0.0, 0.0]\nclass = Year 3", fillcolor="#39e54d"] ;
623 -> 627 ;
628 [label="gini = -0.0\nsamples = 1\nvalue = [0.0, 0.69, 0.0, 0.0, 0.0, 0.0, 0.0]\nclass = Year 2", fillcolor="#b7e539"] ;
622 -> 628 ;
629 [label="gini = 0.0\nsamples = 1\nvalue = [0.0, 0.0, 0.0, 0.0, 0.0, 2.63, 0.0]\nclass = Year 6", fillcolor="#b139e5"] ;
621 -> 629 ;
630 [label="Metal___Flux <= 0.0\ngini = 0.61\nsamples = 5\nvalue = [0.0, 0.69, 1.84, 2.11, 0.0, 0.0, 0.0]\nclass = Year 4", fillcolor="#ecfcfc"] ;
584 -> 630 ;
631 [label="Plastic <= 28.2\ngini = 0.5\nsamples = 4\nvalue = [0.0, 0.0, 1.84, 2.11, 0.0, 0.0, 0.0]\nclass = Year 4", fillcolor="#e5fcfb"] ;
630 -> 631 ;
632 [label="Foamed_Plastic_Fragments___Flux <= 0.0\ngini = 0.46\nsamples = 3\nvalue = [0.0, 0.0, 1.84, 1.05, 0.0, 0.0, 0.0]\nclass = Year 3", fillcolor="#abf4b3"] ;
631 -> 632 ;
633 [label="Metal_Other <= 0.61\ngini = 0.0\nsamples = 2\nvalue = [0.0, 0.0, 1.84, 0.0, 0.0, 0.0, 0.0]\nclass = Year 3", fillcolor="#39e54d"] ;
632 -> 633 ;
634 [label="gini = 0.0\nsamples = 1\nvalue = [0.0, 0.0, 0.92, 0.0, 0.0, 0.0, 0.0]\nclass = Year 3", fillcolor="#39e54d"] ;
633 -> 634 ;
635 [label="gini = 0.0\nsamples = 1\nvalue = [0.0, 0.0, 0.92, 0.0, 0.0, 0.0, 0.0]\nclass = Year 3", fillcolor="#39e54d"] ;
633 -> 635 ;
636 [label="gini = 0.0\nsamples = 1\nvalue = [0.0, 0.0, 0.0, 1.05, 0.0, 0.0, 0.0]\nclass = Year 4", fillcolor="#39e5e2"] ;
632 -> 636 ;
637 [label="gini = 0.0\nsamples = 1\nvalue = [0.0, 0.0, 0.0, 1.05, 0.0, 0.0, 0.0]\nclass = Year 4", fillcolor="#39e5e2"] ;
631 -> 637 ;
638 [label="gini = -0.0\nsamples = 1\nvalue = [0.0, 0.69, 0.0, 0.0, 0.0, 0.0, 0.0]\nclass = Year 2", fillcolor="#b7e539"] ;
630 -> 638 ;
639 [label="Processed_Lumber <= 7.5\ngini = 0.48\nsamples = 3\nvalue = [0.0, 1.38, 0.92, 0.0, 0.0, 0.0, 0.0]\nclass = Year 2", fillcolor="#e7f6bc"] ;
583 -> 639 ;
640 [label="gini = -0.0\nsamples = 2\nvalue = [0.0, 1.38, 0.0, 0.0, 0.0, 0.0, 0.0]\nclass = Year 2", fillcolor="#b7e539"] ;
639 -> 640 ;
641 [label="gini = 0.0\nsamples = 1\nvalue = [0.0, 0.0, 0.92, 0.0, 0.0, 0.0, 0.0]\nclass = Year 3", fillcolor="#39e54d"] ;
639 -> 641 ;
642 [label="gini = -0.0\nsamples = 1\nvalue = [0.0, 0.0, 0.0, 0.0, 1.52, 0.0, 0.0]\nclass = Year 5", fillcolor="#3956e5"] ;
582 -> 642 ;
